<?xml version="1.0"?>
<opencv_storage>
<cascade>
  <stageType>BOOST</stageType>
  <featureType>LBP</featureType>
  <height>40</height>
  <width>40</width>
  <stageParams>
    <boostType>GAB</boostType>
    <minHitRate>9.9500000476837158e-01</minHitRate>
    <maxFalseAlarm>5.0000000000000000e-01</maxFalseAlarm>
    <weightTrimRate>9.4999999999999996e-01</weightTrimRate>
    <maxDepth>1</maxDepth>
    <maxWeakCount>100</maxWeakCount></stageParams>
  <featureParams>
    <maxCatCount>256</maxCatCount></featureParams>
  <stageNum>20</stageNum>
  <stages>
    <!-- stage 0 -->
    <_>
      <maxWeakCount>2</maxWeakCount>
      <stageThreshold>-1.1644186824560165e-01</stageThreshold>
      <weakClassifiers>
        <_>
          <internalNodes>
            0 -1 14 -242491159 998441088 81921 453181440 -1979015013
            524288 1107329419 1376436875</internalNodes>
          <leafValues>
            -9.5918369293212891e-01 8.7096774578094482e-01</leafValues></_>
        <_>
          <internalNodes>
            0 -1 32 -654051116 -788414462 -2147401703 1426112529
            -1073708856 -2147254272 -2013230965 -481574773</internalNodes>
          <leafValues>
            -9.8740959167480469e-01 8.5408651828765869e-01</leafValues></_></weakClassifiers></_>
    <!-- stage 1 -->
    <_>
      <maxWeakCount>2</maxWeakCount>
      <stageThreshold>-2.3431439697742462e-01</stageThreshold>
      <weakClassifiers>
        <_>
          <internalNodes>
            0 -1 36 -770055464 -788463357 16467 1360199682 -2146795381
            -2146893824 1073742216 -74456501</internalNodes>
          <leafValues>
            -9.9272727966308594e-01 7.4634146690368652e-01</leafValues></_>
        <_>
          <internalNodes>
            0 -1 4 269813891 297861139 -1073659887 -183398381 67635368
            687867929 1611235977 -15474550</internalNodes>
          <leafValues>
            -9.8065584897994995e-01 7.7816498279571533e-01</leafValues></_></weakClassifiers></_>
    <!-- stage 2 -->
    <_>
      <maxWeakCount>2</maxWeakCount>
      <stageThreshold>-1.8637512624263763e-01</stageThreshold>
      <weakClassifiers>
        <_>
          <internalNodes>
            0 -1 31 -787090285 -784096057 -2130689327 -1677338622
            -1475510133 -2012020599 -1920891905 -622015872</internalNodes>
          <leafValues>
            -9.7183096408843994e-01 7.9591834545135498e-01</leafValues></_>
        <_>
          <internalNodes>
            0 -1 26 -776471586 -1727888896 -1065336703 -779659760
            -1333425510 -2143289343 -2013167413 -85855522</internalNodes>
          <leafValues>
            -9.7449022531509399e-01 7.8545588254928589e-01</leafValues></_></weakClassifiers></_>
    <!-- stage 3 -->
    <_>
      <maxWeakCount>2</maxWeakCount>
      <stageThreshold>-1.6381089389324188e-01</stageThreshold>
      <weakClassifiers>
        <_>
          <internalNodes>
            0 -1 28 -116067362 -79675134 1090535579 1598390272
            -1073708903 -863993728 -398344053 -844115829</internalNodes>
          <leafValues>
            -9.3079584836959839e-01 7.8010469675064087e-01</leafValues></_>
        <_>
          <internalNodes>
            0 -1 0 -717163013 -780039933 268535253 -720043767 25186489
            -905969536 1167512 -189045605</internalNodes>
          <leafValues>
            -9.4391560554504395e-01 7.7093470096588135e-01</leafValues></_></weakClassifiers></_>
    <!-- stage 4 -->
    <_>
      <maxWeakCount>2</maxWeakCount>
      <stageThreshold>-1.8855912983417511e-01</stageThreshold>
      <weakClassifiers>
        <_>
          <internalNodes>
            0 -1 38 -694695937 -651495597 -1945524909 -692056704
            -1048014949 -670999528 -2046783454 -354623032</internalNodes>
          <leafValues>
            -9.9270075559616089e-01 7.3786407709121704e-01</leafValues></_>
        <_>
          <internalNodes>
            0 -1 24 -134810113 -267116459 272697739 2030064741
            -1298143029 -903681823 -368487677 -728110937</internalNodes>
          <leafValues>
            -9.2642319202423096e-01 8.3522403240203857e-01</leafValues></_></weakClassifiers></_>
    <!-- stage 5 -->
    <_>
      <maxWeakCount>2</maxWeakCount>
      <stageThreshold>-1.7489463090896606e-01</stageThreshold>
      <weakClassifiers>
        <_>
          <internalNodes>
            0 -1 12 -212110465 -800761363 621101121 -335499933
            -1877753433 -393027392 -1056251571 -68882156</internalNodes>
          <leafValues>
            -9.7872340679168701e-01 7.8787881135940552e-01</leafValues></_>
        <_>
          <internalNodes>
            0 -1 13 2046285271 -1273674561 -1844902641 -125382622
            342116575 -58498384 -1601920627 -258868849</internalNodes>
          <leafValues>
            -9.6277344226837158e-01 8.4627836942672729e-01</leafValues></_></weakClassifiers></_>
    <!-- stage 6 -->
    <_>
      <maxWeakCount>2</maxWeakCount>
      <stageThreshold>-1.5420386195182800e-01</stageThreshold>
      <weakClassifiers>
        <_>
          <internalNodes>
            0 -1 33 -783557801 -593415675 -2113842033 -1778202358
            2098266427 -383776249 -1173770901 -20517232</internalNodes>
          <leafValues>
            -9.5138889551162720e-01 8.0208331346511841e-01</leafValues></_>
        <_>
          <internalNodes>
            0 -1 8 -1121517121 990413785 -2063558565 -241106155
            260046863 2087193108 -1600650578 -3578819</internalNodes>
          <leafValues>
            -9.5628720521926880e-01 7.9749649763107300e-01</leafValues></_></weakClassifiers></_>
    <!-- stage 7 -->
    <_>
      <maxWeakCount>2</maxWeakCount>
      <stageThreshold>-1.2490934878587723e-01</stageThreshold>
      <weakClassifiers>
        <_>
          <internalNodes>
            0 -1 29 -754583692 -801681278 37765568 -41451408 222483605
            -925776892 -162901471 -339477649</internalNodes>
          <leafValues>
            -9.3639576435089111e-01 7.3604059219360352e-01</leafValues></_>
        <_>
          <internalNodes>
            0 -1 17 -418917089 -2138996700 746680883 -121535477
            423805444 -335019261 -1998395262 -303039349</internalNodes>
          <leafValues>
            -8.6094993352890015e-01 8.4506207704544067e-01</leafValues></_></weakClassifiers></_>
    <!-- stage 8 -->
    <_>
      <maxWeakCount>2</maxWeakCount>
      <stageThreshold>-2.1778999269008636e-01</stageThreshold>
      <weakClassifiers>
        <_>
          <internalNodes>
            0 -1 23 1359188217 1363312643 -671084523 -1290268655
            -2147450691 -1702363136 -2038431605 -1371240416</internalNodes>
          <leafValues>
            -9.0311419963836670e-01 7.3821991682052612e-01</leafValues></_>
        <_>
          <internalNodes>
            0 -1 37 -1835272612 -651526104 19 -1719659261 -2104323445
            -2147352576 1207992521 -68443717</internalNodes>
          <leafValues>
            -9.5600986480712891e-01 7.6108062267303467e-01</leafValues></_></weakClassifiers></_>
    <!-- stage 9 -->
    <_>
      <maxWeakCount>3</maxWeakCount>
      <stageThreshold>-1.1048659086227417e+00</stageThreshold>
      <weakClassifiers>
        <_>
          <internalNodes>
            0 -1 9 -1822961193 961102405 -2130602643 960714883
            -402601847 -929036287 -1037696628 -73872764</internalNodes>
          <leafValues>
            -9.4202899932861328e-01 6.8627452850341797e-01</leafValues></_>
        <_>
          <internalNodes>
            0 -1 21 -1023286819 -787881860 151015771 1560641812
            134222745 -1702612800 -2138306102 -595005112</internalNodes>
          <leafValues>
            -8.8906878232955933e-01 7.6734018325805664e-01</leafValues></_>
        <_>
          <internalNodes>
            0 -1 15 319459615 903036958 540765 -452111327 9738251
            -125271651 -1476280181 -16265317</internalNodes>
          <leafValues>
            -9.0207159519195557e-01 7.5738608837127686e-01</leafValues></_></weakClassifiers></_>
    <!-- stage 10 -->
    <_>
      <maxWeakCount>2</maxWeakCount>
      <stageThreshold>-5.3868927061557770e-02</stageThreshold>
      <weakClassifiers>
        <_>
          <internalNodes>
            0 -1 1 -17 -1 -6 -65538 -32942 -137 -187 -168296457</internalNodes>
          <leafValues>
            -8.5987263917922974e-01 9.0361446142196655e-01</leafValues></_>
        <_>
          <internalNodes>
            0 -1 34 1392636271 1350992071 -1877863667 -1400829429 527497
            -662585332 1157990440 -1148665728</internalNodes>
          <leafValues>
            -9.1729491949081421e-01 8.0600368976593018e-01</leafValues></_></weakClassifiers></_>
    <!-- stage 11 -->
    <_>
      <maxWeakCount>2</maxWeakCount>
      <stageThreshold>-1.4037841558456421e-01</stageThreshold>
      <weakClassifiers>
        <_>
          <internalNodes>
            0 -1 35 -1877912579 2080555339 302097167 -1317011455
            144211999 -1610547005 -1608478264 -1206343512</internalNodes>
          <leafValues>
            -8.7458747625350952e-01 8.1920903921127319e-01</leafValues></_>
        <_>
          <internalNodes>
            0 -1 39 -1979460199 -1606344703 33675 -1387118585
            -1035599581 276856978 -1465875967 -703625513</internalNodes>
          <leafValues>
            -9.2601144313812256e-01 7.3420906066894531e-01</leafValues></_></weakClassifiers></_>
    <!-- stage 12 -->
    <_>
      <maxWeakCount>2</maxWeakCount>
      <stageThreshold>-2.3088280856609344e-01</stageThreshold>
      <weakClassifiers>
        <_>
          <internalNodes>
            0 -1 40 -746330799 1342792715 534609 1379995786 -1987893631
            -2139078526 545294369 -958666615</internalNodes>
          <leafValues>
            -9.2805755138397217e-01 6.8316829204559326e-01</leafValues></_>
        <_>
          <internalNodes>
            0 -1 20 -788489829 1427124425 -2063072767 -585596400
            -804778623 -1568550655 -938835877 -544406552</internalNodes>
          <leafValues>
            -9.1405111551284790e-01 7.9541397094726562e-01</leafValues></_></weakClassifiers></_>
    <!-- stage 13 -->
    <_>
      <maxWeakCount>2</maxWeakCount>
      <stageThreshold>-1.7291834950447083e-01</stageThreshold>
      <weakClassifiers>
        <_>
          <internalNodes>
            0 -1 7 1074647375 -1056882560 5 957432113 -1943369575
            -1601044349 -1937243870 -257763210</internalNodes>
          <leafValues>
            -9.0344828367233276e-01 7.4736839532852173e-01</leafValues></_>
        <_>
          <internalNodes>
            0 -1 25 13706067 -784007103 708919389 83979289 -2147196917
            -1467465712 -2071977981 -75255666</internalNodes>
          <leafValues>
            -9.2028677463531494e-01 7.6598483324050903e-01</leafValues></_></weakClassifiers></_>
    <!-- stage 14 -->
    <_>
      <maxWeakCount>2</maxWeakCount>
      <stageThreshold>-2.0571736991405487e-01</stageThreshold>
      <weakClassifiers>
        <_>
          <internalNodes>
            0 -1 5 1094435711 -1056751095 1207961601 -654221312
            -1609527093 -1340039022 -1602223988 -24805120</internalNodes>
          <leafValues>
            -9.5698922872543335e-01 7.3134326934814453e-01</leafValues></_>
        <_>
          <internalNodes>
            0 -1 16 270631319 268440709 -1862196219 -2130082555
            706741097 -661618688 -1709077790 -1094089449</internalNodes>
          <leafValues>
            -9.3706065416336060e-01 7.6101607084274292e-01</leafValues></_></weakClassifiers></_>
    <!-- stage 15 -->
    <_>
      <maxWeakCount>2</maxWeakCount>
      <stageThreshold>-2.0214888453483582e-01</stageThreshold>
      <weakClassifiers>
        <_>
          <internalNodes>
            0 -1 22 1461174495 1292929409 160466271 620924170
            -2134867223 -1804598248 -2013105574 -1996455924</internalNodes>
          <leafValues>
            -9.2253524065017700e-01 7.2448980808258057e-01</leafValues></_>
        <_>
          <internalNodes>
            0 -1 27 -780036783 -742326207 8388901 13172755 294913
            -1610514302 579052166 -641531665</internalNodes>
          <leafValues>
            -9.2663866281509399e-01 7.9999983310699463e-01</leafValues></_></weakClassifiers></_>
    <!-- stage 16 -->
    <_>
      <maxWeakCount>2</maxWeakCount>
      <stageThreshold>-2.0906712114810944e-01</stageThreshold>
      <weakClassifiers>
        <_>
          <internalNodes>
            0 -1 3 1091787251 1560870937 176165907 -653000558 1078108295
            -887093120 -1342177143 -256866109</internalNodes>
          <leafValues>
            -9.4964027404785156e-01 7.1287131309509277e-01</leafValues></_>
        <_>
          <internalNodes>
            0 -1 11 -985597196 -249950123 570556818 689013771 1073774827
            18352329 -1065254773 -341794806</internalNodes>
          <leafValues>
            -9.1231751441955566e-01 7.4057316780090332e-01</leafValues></_></weakClassifiers></_>
    <!-- stage 17 -->
    <_>
      <maxWeakCount>2</maxWeakCount>
      <stageThreshold>-1.1259571462869644e-01</stageThreshold>
      <weakClassifiers>
        <_>
          <internalNodes>
            0 -1 2 -926703301 293928961 545325059 1292898960 67404943
            -1929182194 -853539697 -178943701</internalNodes>
          <leafValues>
            -8.9761090278625488e-01 7.6470589637756348e-01</leafValues></_>
        <_>
          <internalNodes>
            0 -1 30 -1958072897 -786857708 25166089 285918209
            -2088166494 -1876688760 940642977 -258252277</internalNodes>
          <leafValues>
            -8.7730157375335693e-01 8.0836147069931030e-01</leafValues></_></weakClassifiers></_>
    <!-- stage 18 -->
    <_>
      <maxWeakCount>2</maxWeakCount>
      <stageThreshold>-2.5274908542633057e-01</stageThreshold>
      <weakClassifiers>
        <_>
          <internalNodes>
            0 -1 6 -1320160481 -1202876413 -2147401599 -792133238
            -997834739 -939490768 -2146794871 -119508731</internalNodes>
          <leafValues>
            -9.3548387289047241e-01 7.0149254798889160e-01</leafValues></_>
        <_>
          <internalNodes>
            0 -1 18 -1660905513 1344291151 67109491 -783630003
            -2139094309 1839204368 13177371 -226194720</internalNodes>
          <leafValues>
            -9.5424163341522217e-01 7.0254445075988770e-01</leafValues></_></weakClassifiers></_>
    <!-- stage 19 -->
    <_>
      <maxWeakCount>2</maxWeakCount>
      <stageThreshold>-2.3161979019641876e-01</stageThreshold>
      <weakClassifiers>
        <_>
          <internalNodes>
            0 -1 10 1342263771 1409810433 281 -548405199 343933081
            -1686077310 1242104009 -1593835136</internalNodes>
          <leafValues>
            -8.8732391595840454e-01 6.7346936464309692e-01</leafValues></_>
        <_>
          <internalNodes>
            0 -1 19 -2062446125 805347342 539066711 -1862205037
            -1069477632 541069714 -2147435741 -561919861</internalNodes>
          <leafValues>
            -9.0508919954299927e-01 7.0881342887878418e-01</leafValues></_></weakClassifiers></_></stages>
  <features>
    <_>
      <rect>
        0 2 10 6</rect></_>
    <_>
      <rect>
        0 9 2 3</rect></_>
    <_>
      <rect>
        0 9 10 6</rect></_>
    <_>
      <rect>
        0 10 9 5</rect></_>
    <_>
      <rect>
        0 22 12 4</rect></_>
    <_>
      <rect>
        1 0 5 3</rect></_>
    <_>
      <rect>
        1 2 3 4</rect></_>
    <_>
      <rect>
        2 2 7 4</rect></_>
    <_>
      <rect>
        2 22 12 4</rect></_>
    <_>
      <rect>
        3 0 6 3</rect></_>
    <_>
      <rect>
        5 0 8 1</rect></_>
    <_>
      <rect>
        5 28 8 4</rect></_>
    <_>
      <rect>
        6 4 2 7</rect></_>
    <_>
      <rect>
        6 10 7 4</rect></_>
    <_>
      <rect>
        7 18 8 6</rect></_>
    <_>
      <rect>
        8 20 5 5</rect></_>
    <_>
      <rect>
        9 21 5 4</rect></_>
    <_>
      <rect>
        10 17 5 7</rect></_>
    <_>
      <rect>
        11 0 9 4</rect></_>
    <_>
      <rect>
        11 20 5 4</rect></_>
    <_>
      <rect>
        11 31 7 3</rect></_>
    <_>
      <rect>
        11 34 6 2</rect></_>
    <_>
      <rect>
        12 31 6 3</rect></_>
    <_>
      <rect>
        13 0 3 1</rect></_>
    <_>
      <rect>
        15 13 5 4</rect></_>
    <_>
      <rect>
        15 21 4 5</rect></_>
    <_>
      <rect>
        16 5 8 10</rect></_>
    <_>
      <rect>
        16 19 4 6</rect></_>
    <_>
      <rect>
        16 28 6 4</rect></_>
    <_>
      <rect>
        20 5 6 11</rect></_>
    <_>
      <rect>
        20 10 4 3</rect></_>
    <_>
      <rect>
        21 0 6 4</rect></_>
    <_>
      <rect>
        21 6 6 7</rect></_>
    <_>
      <rect>
        24 3 4 3</rect></_>
    <_>
      <rect>
        24 16 4 4</rect></_>
    <_>
      <rect>
        24 34 4 2</rect></_>
    <_>
      <rect>
        26 10 4 5</rect></_>
    <_>
      <rect>
        27 5 4 8</rect></_>
    <_>
      <rect>
        28 0 2 3</rect></_>
    <_>
      <rect>
        31 10 3 5</rect></_>
    <_>
      <rect>
        33 11 2 4</rect></_></features></cascade>
</opencv_storage>
