<?xml version="1.0"?>
<opencv_storage>
<cascade>
  <stageType>BOOST</stageType>
  <featureType>HAAR</featureType>
  <height>24</height>
  <width>24</width>
  <stageParams>
    <boostType>GAB</boostType>
    <minHitRate>9.9500000476837158e-01</minHitRate>
    <maxFalseAlarm>5.0000000000000000e-01</maxFalseAlarm>
    <weightTrimRate>9.4999999999999996e-01</weightTrimRate>
    <maxDepth>1</maxDepth>
    <maxWeakCount>100</maxWeakCount></stageParams>
  <featureParams>
    <maxCatCount>0</maxCatCount>
    <mode>ALL</mode></featureParams>
  <stageNum>12</stageNum>
  <stages>
    <!-- stage 0 -->
    <_>
      <maxWeakCount>1</maxWeakCount>
      <stageThreshold>1.</stageThreshold>
      <weakClassifiers>
        <_>
          <internalNodes>
            0 -1 0 -3.0612742900848389e-01</internalNodes>
          <leafValues>
            1. -1.</leafValues></_></weakClassifiers></_>
    <!-- stage 1 -->
    <_>
      <maxWeakCount>1</maxWeakCount>
      <stageThreshold>9.7802197933197021e-01</stageThreshold>
      <weakClassifiers>
        <_>
          <internalNodes>
            0 -1 4 -1.2716368772089481e-02</internalNodes>
          <leafValues>
            9.7802197933197021e-01 -1.</leafValues></_></weakClassifiers></_>
    <!-- stage 2 -->
    <_>
      <maxWeakCount>2</maxWeakCount>
      <stageThreshold>4.4453464448451996e-02</stageThreshold>
      <weakClassifiers>
        <_>
          <internalNodes>
            0 -1 15 1.6640413086861372e-03</internalNodes>
          <leafValues>
            -9.1304349899291992e-01 9.7752809524536133e-01</leafValues></_>
        <_>
          <internalNodes>
            0 -1 16 -1.4682512264698744e-03</internalNodes>
          <leafValues>
            9.5749694108963013e-01 -8.9063447713851929e-01</leafValues></_></weakClassifiers></_>
    <!-- stage 3 -->
    <_>
      <maxWeakCount>2</maxWeakCount>
      <stageThreshold>-3.0630128458142281e-02</stageThreshold>
      <weakClassifiers>
        <_>
          <internalNodes>
            0 -1 12 -6.2708323821425438e-03</internalNodes>
          <leafValues>
            8.9361703395843506e-01 -9.5121949911117554e-01</leafValues></_>
        <_>
          <internalNodes>
            0 -1 11 -8.1326421350240707e-03</internalNodes>
          <leafValues>
            9.2058938741683960e-01 -8.8209187984466553e-01</leafValues></_></weakClassifiers></_>
    <!-- stage 4 -->
    <_>
      <maxWeakCount>1</maxWeakCount>
      <stageThreshold>8.7500000000000000e-01</stageThreshold>
      <weakClassifiers>
        <_>
          <internalNodes>
            0 -1 10 -7.3828210588544607e-04</internalNodes>
          <leafValues>
            -1. 8.7500000000000000e-01</leafValues></_></weakClassifiers></_>
    <!-- stage 5 -->
    <_>
      <maxWeakCount>1</maxWeakCount>
      <stageThreshold>8.1818181276321411e-01</stageThreshold>
      <weakClassifiers>
        <_>
          <internalNodes>
            0 -1 17 1.3135361950844526e-03</internalNodes>
          <leafValues>
            -1. 8.1818181276321411e-01</leafValues></_></weakClassifiers></_>
    <!-- stage 6 -->
    <_>
      <maxWeakCount>1</maxWeakCount>
      <stageThreshold>8.0000001192092896e-01</stageThreshold>
      <weakClassifiers>
        <_>
          <internalNodes>
            0 -1 8 1.3126796111464500e-02</internalNodes>
          <leafValues>
            -1. 8.0000001192092896e-01</leafValues></_></weakClassifiers></_>
    <!-- stage 7 -->
    <_>
      <maxWeakCount>2</maxWeakCount>
      <stageThreshold>2.8027398511767387e-02</stageThreshold>
      <weakClassifiers>
        <_>
          <internalNodes>
            0 -1 13 8.4109464660286903e-03</internalNodes>
          <leafValues>
            -7.5000000000000000e-01 9.3103450536727905e-01</leafValues></_>
        <_>
          <internalNodes>
            0 -1 1 -1.2659274041652679e-02</internalNodes>
          <leafValues>
            8.2604843378067017e-01 -9.0300709009170532e-01</leafValues></_></weakClassifiers></_>
    <!-- stage 8 -->
    <_>
      <maxWeakCount>2</maxWeakCount>
      <stageThreshold>-9.6155866980552673e-02</stageThreshold>
      <weakClassifiers>
        <_>
          <internalNodes>
            0 -1 5 5.3836479783058167e-03</internalNodes>
          <leafValues>
            8.7234044075012207e-01 -9.0243899822235107e-01</leafValues></_>
        <_>
          <internalNodes>
            0 -1 6 -4.6107038855552673e-02</internalNodes>
          <leafValues>
            8.2113605737686157e-01 -9.6849626302719116e-01</leafValues></_></weakClassifiers></_>
    <!-- stage 9 -->
    <_>
      <maxWeakCount>1</maxWeakCount>
      <stageThreshold>8.0000001192092896e-01</stageThreshold>
      <weakClassifiers>
        <_>
          <internalNodes>
            0 -1 14 7.6344963163137436e-03</internalNodes>
          <leafValues>
            8.0000001192092896e-01 -1.</leafValues></_></weakClassifiers></_>
    <!-- stage 10 -->
    <_>
      <maxWeakCount>2</maxWeakCount>
      <stageThreshold>3.7887517362833023e-02</stageThreshold>
      <weakClassifiers>
        <_>
          <internalNodes>
            0 -1 7 -8.7292212992906570e-03</internalNodes>
          <leafValues>
            1. -6.3636362552642822e-01</leafValues></_>
        <_>
          <internalNodes>
            0 -1 2 5.4699927568435669e-04</internalNodes>
          <leafValues>
            8.1931728124618530e-01 -9.6211248636245728e-01</leafValues></_></weakClassifiers></_>
    <!-- stage 11 -->
    <_>
      <maxWeakCount>2</maxWeakCount>
      <stageThreshold>4.8963688313961029e-02</stageThreshold>
      <weakClassifiers>
        <_>
          <internalNodes>
            0 -1 9 2.0314913708716631e-03</internalNodes>
          <leafValues>
            9.5505619049072266e-01 -8.6956518888473511e-01</leafValues></_>
        <_>
          <internalNodes>
            0 -1 3 4.0152249857783318e-03</internalNodes>
          <leafValues>
            -8.9828526973724365e-01 9.1852891445159912e-01</leafValues></_></weakClassifiers></_></stages>
  <features>
    <_>
      <rects>
        <_>
          0 3 24 21 -1.</_>
        <_>
          6 3 12 21 2.</_></rects>
      <tilted>0</tilted></_>
    <_>
      <rects>
        <_>
          0 15 9 9 -1.</_>
        <_>
          3 15 3 9 3.</_></rects>
      <tilted>0</tilted></_>
    <_>
      <rects>
        <_>
          1 16 14 1 -1.</_>
        <_>
          8 16 7 1 2.</_></rects>
      <tilted>0</tilted></_>
    <_>
      <rects>
        <_>
          5 1 2 5 -1.</_>
        <_>
          5 1 1 5 2.</_></rects>
      <tilted>1</tilted></_>
    <_>
      <rects>
        <_>
          5 9 10 4 -1.</_>
        <_>
          5 9 5 4 2.</_></rects>
      <tilted>1</tilted></_>
    <_>
      <rects>
        <_>
          6 3 12 10 -1.</_>
        <_>
          6 3 6 5 2.</_>
        <_>
          12 8 6 5 2.</_></rects>
      <tilted>0</tilted></_>
    <_>
      <rects>
        <_>
          7 7 10 5 -1.</_>
        <_>
          7 7 5 5 2.</_></rects>
      <tilted>1</tilted></_>
    <_>
      <rects>
        <_>
          8 15 6 6 -1.</_>
        <_>
          8 17 6 2 3.</_></rects>
      <tilted>0</tilted></_>
    <_>
      <rects>
        <_>
          10 4 12 4 -1.</_>
        <_>
          10 4 12 2 2.</_></rects>
      <tilted>1</tilted></_>
    <_>
      <rects>
        <_>
          11 5 7 6 -1.</_>
        <_>
          11 7 7 2 3.</_></rects>
      <tilted>0</tilted></_>
    <_>
      <rects>
        <_>
          12 9 8 8 -1.</_>
        <_>
          14 9 4 8 2.</_></rects>
      <tilted>0</tilted></_>
    <_>
      <rects>
        <_>
          13 14 5 6 -1.</_>
        <_>
          13 16 5 2 3.</_></rects>
      <tilted>0</tilted></_>
    <_>
      <rects>
        <_>
          16 7 4 8 -1.</_>
        <_>
          16 9 4 4 2.</_></rects>
      <tilted>0</tilted></_>
    <_>
      <rects>
        <_>
          18 1 1 6 -1.</_>
        <_>
          18 1 1 3 2.</_></rects>
      <tilted>1</tilted></_>
    <_>
      <rects>
        <_>
          18 16 4 6 -1.</_>
        <_>
          20 16 2 6 2.</_></rects>
      <tilted>0</tilted></_>
    <_>
      <rects>
        <_>
          19 10 1 12 -1.</_>
        <_>
          19 13 1 6 2.</_></rects>
      <tilted>0</tilted></_>
    <_>
      <rects>
        <_>
          19 11 4 6 -1.</_>
        <_>
          19 11 2 3 2.</_>
        <_>
          21 14 2 3 2.</_></rects>
      <tilted>0</tilted></_>
    <_>
      <rects>
        <_>
          20 15 4 4 -1.</_>
        <_>
          22 15 2 4 2.</_></rects>
      <tilted>0</tilted></_></features></cascade>
</opencv_storage>
