<?xml version="1.0"?>
<opencv_storage>
<cascade>
  <stageType>BOOST</stageType>
  <featureType>LBP</featureType>
  <height>40</height>
  <width>40</width>
  <stageParams>
    <boostType>GAB</boostType>
    <minHitRate>9.9500000476837158e-01</minHitRate>
    <maxFalseAlarm>5.0000000000000000e-01</maxFalseAlarm>
    <weightTrimRate>9.4999999999999996e-01</weightTrimRate>
    <maxDepth>1</maxDepth>
    <maxWeakCount>100</maxWeakCount></stageParams>
  <featureParams>
    <maxCatCount>256</maxCatCount></featureParams>
  <stageNum>20</stageNum>
  <stages>
    <!-- stage 0 -->
    <_>
      <maxWeakCount>2</maxWeakCount>
      <stageThreshold>-1.7963084578514099e-01</stageThreshold>
      <weakClassifiers>
        <_>
          <internalNodes>
            0 -1 2 1368119775 -753680352 805376275 1394049281 537006211
            -2147384832 8520179 -69499761</internalNodes>
          <leafValues>
            -9.6875000000000000e-01 7.7551019191741943e-01</leafValues></_>
        <_>
          <internalNodes>
            0 -1 7 -1316759075 570900627 268435857 -237907645 623243
            -1325055999 33591739 -39849013</internalNodes>
          <leafValues>
            -9.5514106750488281e-01 7.9245567321777344e-01</leafValues></_></weakClassifiers></_>
    <!-- stage 1 -->
    <_>
      <maxWeakCount>2</maxWeakCount>
      <stageThreshold>-2.3164321482181549e-01</stageThreshold>
      <weakClassifiers>
        <_>
          <internalNodes>
            0 -1 33 -2360833 855835651 -2130640759 162259075 -1064771381
            -2113273856 -805207601 -1953508613</internalNodes>
          <leafValues>
            -9.1773778200149536e-01 7.1727746725082397e-01</leafValues></_>
        <_>
          <internalNodes>
            0 -1 3 -786971681 -687697341 -771701748 -687746045
            1363215083 1780138048 1073811467 -607395291</internalNodes>
          <leafValues>
            -9.4892072677612305e-01 7.2876960039138794e-01</leafValues></_></weakClassifiers></_>
    <!-- stage 2 -->
    <_>
      <maxWeakCount>2</maxWeakCount>
      <stageThreshold>-2.2148922085762024e-01</stageThreshold>
      <weakClassifiers>
        <_>
          <internalNodes>
            0 -1 31 -136316929 424001811 262149 -1429356477 -931041077
            8390689 -519828821 -269489461</internalNodes>
          <leafValues>
            -9.0745502710342407e-01 6.9633507728576660e-01</leafValues></_>
        <_>
          <internalNodes>
            0 -1 22 -1859863044 -103739236 419435740 1561405952
            -1467968835 -1199537960 -1601986328 -209182592</internalNodes>
          <leafValues>
            -9.1782432794570923e-01 6.8681877851486206e-01</leafValues></_></weakClassifiers></_>
    <!-- stage 3 -->
    <_>
      <maxWeakCount>2</maxWeakCount>
      <stageThreshold>-2.3694263398647308e-01</stageThreshold>
      <weakClassifiers>
        <_>
          <internalNodes>
            0 -1 5 1540341527 -32940719 20993427 -767782907 570597771
            -1191182184 732432539 -35652157</internalNodes>
          <leafValues>
            -9.3010753393173218e-01 6.0576921701431274e-01</leafValues></_>
        <_>
          <internalNodes>
            0 -1 27 -241711749 -721035107 1100055033 -11970045
            -1610441845 -1207959408 -1056724850 -133438943</internalNodes>
          <leafValues>
            -8.4271186590194702e-01 7.9456901550292969e-01</leafValues></_></weakClassifiers></_>
    <!-- stage 4 -->
    <_>
      <maxWeakCount>2</maxWeakCount>
      <stageThreshold>-1.7784537374973297e-01</stageThreshold>
      <weakClassifiers>
        <_>
          <internalNodes>
            0 -1 38 -1307848705 -1898139297 -565096871 -336559497
            -1903841383 -861501223 -494494802 -1191554072</internalNodes>
          <leafValues>
            -9.3877553939819336e-01 7.8723406791687012e-01</leafValues></_>
        <_>
          <internalNodes>
            0 -1 8 46870839 813008287 -2130471441 -136838123 -517622819
            -634158992 -795766833 -68165493</internalNodes>
          <leafValues>
            -9.6507942676544189e-01 7.7317726612091064e-01</leafValues></_></weakClassifiers></_>
    <!-- stage 5 -->
    <_>
      <maxWeakCount>2</maxWeakCount>
      <stageThreshold>-1.8339870870113373e-01</stageThreshold>
      <weakClassifiers>
        <_>
          <internalNodes>
            0 -1 23 199193599 -1446837845 -787363009 -14294319
            1696805803 -927944509 -473679447 -456672785</internalNodes>
          <leafValues>
            -9.3367344141006470e-01 7.7659577131271362e-01</leafValues></_>
        <_>
          <internalNodes>
            0 -1 30 -1717051425 341260703 -312343010 -865073897
            -2084654913 2058718589 -75453395 -926549</internalNodes>
          <leafValues>
            -9.5999443531036377e-01 7.6178270578384399e-01</leafValues></_></weakClassifiers></_>
    <!-- stage 6 -->
    <_>
      <maxWeakCount>3</maxWeakCount>
      <stageThreshold>-1.1610181331634521e+00</stageThreshold>
      <weakClassifiers>
        <_>
          <internalNodes>
            0 -1 34 -775188041 823153669 1346388001 528615491 -670719614
            -2012741501 -1064654808 -656834422</internalNodes>
          <leafValues>
            -9.2757660150527954e-01 5.1131224632263184e-01</leafValues></_>
        <_>
          <internalNodes>
            0 -1 26 -1684709155 -750710783 553926875 1368457473
            -2146384933 -2097119091 570524315 992551299</internalNodes>
          <leafValues>
            -9.1515904664993286e-01 5.6660336256027222e-01</leafValues></_>
        <_>
          <internalNodes>
            0 -1 40 -86576161 277336084 536969665 365462147 -1979539382
            -1870528480 -1869578102 -586366002</internalNodes>
          <leafValues>
            -8.8908380270004272e-01 6.8171745538711548e-01</leafValues></_></weakClassifiers></_>
    <!-- stage 7 -->
    <_>
      <maxWeakCount>2</maxWeakCount>
      <stageThreshold>-3.1087619066238403e-01</stageThreshold>
      <weakClassifiers>
        <_>
          <internalNodes>
            0 -1 37 -721292065 1094799377 50470803 -577666855 -519792184
            1551892512 1073783096 1183133314</internalNodes>
          <leafValues>
            -9.1534394025802612e-01 6.2376236915588379e-01</leafValues></_>
        <_>
          <internalNodes>
            0 -1 35 -1585421987 -1605205995 134217731 571015557
            -2109702135 -1282899833 8520415 -70555191</internalNodes>
          <leafValues>
            -9.3463855981826782e-01 6.5301030874252319e-01</leafValues></_></weakClassifiers></_>
    <!-- stage 8 -->
    <_>
      <maxWeakCount>2</maxWeakCount>
      <stageThreshold>-2.2762723267078400e-01</stageThreshold>
      <weakClassifiers>
        <_>
          <internalNodes>
            0 -1 15 1485658967 -788463231 78016 -1849622135 536905892
            -1639972223 -752514901 -492855245</internalNodes>
          <leafValues>
            -8.6172837018966675e-01 7.3714286088943481e-01</leafValues></_>
        <_>
          <internalNodes>
            0 -1 21 1031844507 -728498130 1612873740 -1006565311 4198877
            -2071457783 -637498172 -1313234</internalNodes>
          <leafValues>
            -9.4236475229263306e-01 6.3410115242004395e-01</leafValues></_></weakClassifiers></_>
    <!-- stage 9 -->
    <_>
      <maxWeakCount>2</maxWeakCount>
      <stageThreshold>-1.6601979732513428e-01</stageThreshold>
      <weakClassifiers>
        <_>
          <internalNodes>
            0 -1 20 408994771 -582844399 268519703 420216834 -1476325189
            1216381008 -1593800040 -54294399</internalNodes>
          <leafValues>
            -8.5401457548141479e-01 7.7514791488647461e-01</leafValues></_>
        <_>
          <internalNodes>
            0 -1 1 -266213931 -1581150207 -2013165312 -46120957 2830740
            86360098 -935321401 -108541415</internalNodes>
          <leafValues>
            -9.1621267795562744e-01 6.8799477815628052e-01</leafValues></_></weakClassifiers></_>
    <!-- stage 10 -->
    <_>
      <maxWeakCount>2</maxWeakCount>
      <stageThreshold>-9.6851006150245667e-02</stageThreshold>
      <weakClassifiers>
        <_>
          <internalNodes>
            0 -1 29 1394730417 -788478911 553649199 -717023967
            -2126479230 1073774629 8405465 -917913573</internalNodes>
          <leafValues>
            -8.5377359390258789e-01 9.1025638580322266e-01</leafValues></_>
        <_>
          <internalNodes>
            0 -1 42 -853585485 -1862205043 32784 151003417 67145731
            -2147434464 -519831549 -1601908597</internalNodes>
          <leafValues>
            -8.9109164476394653e-01 7.5692260265350342e-01</leafValues></_></weakClassifiers></_>
    <!-- stage 11 -->
    <_>
      <maxWeakCount>2</maxWeakCount>
      <stageThreshold>-9.2665940523147583e-02</stageThreshold>
      <weakClassifiers>
        <_>
          <internalNodes>
            0 -1 4 -446759913 -955464577 2152528 -2103426815 295673026
            113969678 -532534014 -323467133</internalNodes>
          <leafValues>
            -8.6861312389373779e-01 8.1065088510513306e-01</leafValues></_>
        <_>
          <internalNodes>
            0 -1 36 -1069214441 324076040 -2063294205 1543548430
            688130434 -1597439999 134291501 -288810494</internalNodes>
          <leafValues>
            -9.0219223499298096e-01 7.7594721317291260e-01</leafValues></_></weakClassifiers></_>
    <!-- stage 12 -->
    <_>
      <maxWeakCount>3</maxWeakCount>
      <stageThreshold>-1.0614643096923828e+00</stageThreshold>
      <weakClassifiers>
        <_>
          <internalNodes>
            0 -1 9 819435287 1091239936 -1593573248 1694502912
            -2004817774 -1581215614 -2138487286 -121077110</internalNodes>
          <leafValues>
            -9.4054055213928223e-01 6.0952383279800415e-01</leafValues></_>
        <_>
          <internalNodes>
            0 -1 41 -1975387301 1235292235 268451841 386400392 813728902
            -536342525 -1828648824 -108852455</internalNodes>
          <leafValues>
            -8.7998563051223755e-01 7.7380198240280151e-01</leafValues></_>
        <_>
          <internalNodes>
            0 -1 13 -1065306670 -175947390 -2146172920 -1845297147
            -1291320696 -1442045824 -1056196472 -498073463</internalNodes>
          <leafValues>
            -9.0717768669128418e-01 7.5906181335449219e-01</leafValues></_></weakClassifiers></_>
    <!-- stage 13 -->
    <_>
      <maxWeakCount>2</maxWeakCount>
      <stageThreshold>-1.9033142924308777e-01</stageThreshold>
      <weakClassifiers>
        <_>
          <internalNodes>
            0 -1 11 927705943 -2142236609 1056849 -1610509056 693420116
            -1071610880 -531262969 -81220088</internalNodes>
          <leafValues>
            -9.0547263622283936e-01 8.0898874998092651e-01</leafValues></_>
        <_>
          <internalNodes>
            0 -1 43 419819999 621058567 -2138504953 294225795 1342276169
            268697664 -1807695872 -1209865949</internalNodes>
          <leafValues>
            -9.4048070907592773e-01 7.1514123678207397e-01</leafValues></_></weakClassifiers></_>
    <!-- stage 14 -->
    <_>
      <maxWeakCount>2</maxWeakCount>
      <stageThreshold>-1.3972096145153046e-01</stageThreshold>
      <weakClassifiers>
        <_>
          <internalNodes>
            0 -1 19 -787279649 -191758271 -2006974311 -1777727488
            -2012995189 -1836830464 -1115684214 -1602578175</internalNodes>
          <leafValues>
            -8.9162564277648926e-01 8.1609195470809937e-01</leafValues></_>
        <_>
          <internalNodes>
            0 -1 39 1490147679 17728008 17109633 5575236 167805506
            813958912 1262534795 -456562553</internalNodes>
          <leafValues>
            -8.8725548982620239e-01 7.5190466642379761e-01</leafValues></_></weakClassifiers></_>
    <!-- stage 15 -->
    <_>
      <maxWeakCount>2</maxWeakCount>
      <stageThreshold>-1.9986249506473541e-01</stageThreshold>
      <weakClassifiers>
        <_>
          <internalNodes>
            0 -1 24 861114643 202457353 -1065221367 1363234819 134488310
            -1576959996 -2013199734 -391143287</internalNodes>
          <leafValues>
            -9.0547263622283936e-01 8.0898874998092651e-01</leafValues></_>
        <_>
          <internalNodes>
            0 -1 17 152393021 -1584909452 1074813209 409010308 805388484
            -239058919 -535756608 -901738294</internalNodes>
          <leafValues>
            -9.3067884445190430e-01 7.0561015605926514e-01</leafValues></_></weakClassifiers></_>
    <!-- stage 16 -->
    <_>
      <maxWeakCount>3</maxWeakCount>
      <stageThreshold>-1.0221096277236938e+00</stageThreshold>
      <weakClassifiers>
        <_>
          <internalNodes>
            0 -1 16 -780069229 16417 -2147417579 1661535232 545800613
            -1283355636 -469515614 -1599897585</internalNodes>
          <leafValues>
            -9.2746114730834961e-01 7.1134018898010254e-01</leafValues></_>
        <_>
          <internalNodes>
            0 -1 18 -784268011 -2126411422 -1609555903 -1056964285
            -536311780 -923664380 -2139029413 -996441597</internalNodes>
          <leafValues>
            -8.6051839590072632e-01 8.7640959024429321e-01</leafValues></_>
        <_>
          <internalNodes>
            0 -1 0 -225843707 -1039924681 1182908491 339745430
            1074266887 50561285 -402651099 1485075982</internalNodes>
          <leafValues>
            -9.7298222780227661e-01 7.6586991548538208e-01</leafValues></_></weakClassifiers></_>
    <!-- stage 17 -->
    <_>
      <maxWeakCount>2</maxWeakCount>
      <stageThreshold>-2.0542949438095093e-01</stageThreshold>
      <weakClassifiers>
        <_>
          <internalNodes>
            0 -1 25 -1592540201 1885339651 1342242844 -1652555766
            -2128543701 -115179517 134236160 -846657016</internalNodes>
          <leafValues>
            -8.4951454401016235e-01 7.7380955219268799e-01</leafValues></_>
        <_>
          <internalNodes>
            0 -1 6 277189633 310575125 361103776 -1861484510 38385685
            680024072 -1733801851 -388971999</internalNodes>
          <leafValues>
            -9.7923904657363892e-01 6.6320616006851196e-01</leafValues></_></weakClassifiers></_>
    <!-- stage 18 -->
    <_>
      <maxWeakCount>2</maxWeakCount>
      <stageThreshold>-1.4677838981151581e-01</stageThreshold>
      <weakClassifiers>
        <_>
          <internalNodes>
            0 -1 32 285947171 -251592447 135173 -436108783 1242107947
            66048 -1573871477 -157050112</internalNodes>
          <leafValues>
            -8.5472154617309570e-01 7.9640716314315796e-01</leafValues></_>
        <_>
          <internalNodes>
            0 -1 14 -1509931163 -1608171183 8430308 -534313851 134338763
            1275953285 134250628 -1451212791</internalNodes>
          <leafValues>
            -9.3152445554733276e-01 7.0794314146041870e-01</leafValues></_></weakClassifiers></_>
    <!-- stage 19 -->
    <_>
      <maxWeakCount>3</maxWeakCount>
      <stageThreshold>-9.4992214441299438e-01</stageThreshold>
      <weakClassifiers>
        <_>
          <internalNodes>
            0 -1 12 -1874472453 918690193 4129 -1960796120 -1878423420
            -1063124976 43026433 -240992246</internalNodes>
          <leafValues>
            -8.6699509620666504e-01 7.5862067937850952e-01</leafValues></_>
        <_>
          <internalNodes>
            0 -1 28 1478741363 -737148667 67207302 -987688942
            -2012210048 -401702656 -1593212800 -394145272</internalNodes>
          <leafValues>
            -8.3601444959640503e-01 8.5526448488235474e-01</leafValues></_>
        <_>
          <internalNodes>
            0 -1 10 1361003335 -778911467 301989889 -1794882998
            -2147346412 -167673856 -1609940423 -1978662399</internalNodes>
          <leafValues>
            -9.3819153308868408e-01 7.5824457406997681e-01</leafValues></_></weakClassifiers></_></stages>
  <features>
    <_>
      <rect>
        0 1 7 13</rect></_>
    <_>
      <rect>
        0 3 7 12</rect></_>
    <_>
      <rect>
        0 5 7 11</rect></_>
    <_>
      <rect>
        0 5 8 10</rect></_>
    <_>
      <rect>
        0 7 8 10</rect></_>
    <_>
      <rect>
        0 13 7 7</rect></_>
    <_>
      <rect>
        0 13 9 8</rect></_>
    <_>
      <rect>
        1 13 13 8</rect></_>
    <_>
      <rect>
        2 15 9 8</rect></_>
    <_>
      <rect>
        3 13 7 8</rect></_>
    <_>
      <rect>
        3 31 3 2</rect></_>
    <_>
      <rect>
        4 15 8 5</rect></_>
    <_>
      <rect>
        4 19 12 5</rect></_>
    <_>
      <rect>
        4 23 7 4</rect></_>
    <_>
      <rect>
        6 13 11 5</rect></_>
    <_>
      <rect>
        7 0 7 5</rect></_>
    <_>
      <rect>
        7 10 9 9</rect></_>
    <_>
      <rect>
        7 17 8 5</rect></_>
    <_>
      <rect>
        8 0 6 4</rect></_>
    <_>
      <rect>
        9 0 6 3</rect></_>
    <_>
      <rect>
        9 0 7 2</rect></_>
    <_>
      <rect>
        9 15 4 4</rect></_>
    <_>
      <rect>
        9 28 8 2</rect></_>
    <_>
      <rect>
        10 5 4 10</rect></_>
    <_>
      <rect>
        10 9 5 6</rect></_>
    <_>
      <rect>
        11 28 5 2</rect></_>
    <_>
      <rect>
        13 31 4 3</rect></_>
    <_>
      <rect>
        15 0 5 4</rect></_>
    <_>
      <rect>
        15 0 6 2</rect></_>
    <_>
      <rect>
        15 24 8 4</rect></_>
    <_>
      <rect>
        18 13 7 4</rect></_>
    <_>
      <rect>
        19 3 6 12</rect></_>
    <_>
      <rect>
        19 7 3 3</rect></_>
    <_>
      <rect>
        19 16 7 8</rect></_>
    <_>
      <rect>
        20 13 5 6</rect></_>
    <_>
      <rect>
        20 37 2 1</rect></_>
    <_>
      <rect>
        22 15 4 6</rect></_>
    <_>
      <rect>
        22 22 6 4</rect></_>
    <_>
      <rect>
        24 32 3 2</rect></_>
    <_>
      <rect>
        25 5 3 4</rect></_>
    <_>
      <rect>
        25 14 4 5</rect></_>
    <_>
      <rect>
        26 29 3 3</rect></_>
    <_>
      <rect>
        28 12 3 7</rect></_>
    <_>
      <rect>
        31 22 3 6</rect></_></features></cascade>
</opencv_storage>
