<?xml version="1.0"?>
<opencv_storage>
<cascade>
  <stageType>BOOST</stageType>
  <featureType>LBP</featureType>
  <height>40</height>
  <width>40</width>
  <stageParams>
    <boostType>GAB</boostType>
    <minHitRate>9.9500000476837158e-01</minHitRate>
    <maxFalseAlarm>5.0000000000000000e-01</maxFalseAlarm>
    <weightTrimRate>9.4999999999999996e-01</weightTrimRate>
    <maxDepth>1</maxDepth>
    <maxWeakCount>100</maxWeakCount></stageParams>
  <featureParams>
    <maxCatCount>256</maxCatCount></featureParams>
  <stageNum>20</stageNum>
  <stages>
    <!-- stage 0 -->
    <_>
      <maxWeakCount>2</maxWeakCount>
      <stageThreshold>-1.1923111230134964e-01</stageThreshold>
      <weakClassifiers>
        <_>
          <internalNodes>
            0 -1 3 957085151 17125701 -1073737725 -1860976445 171
            302055554 116875 -342894449</internalNodes>
          <leafValues>
            -9.5020747184753418e-01 8.4126985073089600e-01</leafValues></_>
        <_>
          <internalNodes>
            0 -1 29 1359073739 285310979 536973329 17236249 1090535595
            -2009071615 268486799 -878709281</internalNodes>
          <leafValues>
            -9.5692777633666992e-01 8.3097636699676514e-01</leafValues></_></weakClassifiers></_>
    <!-- stage 1 -->
    <_>
      <maxWeakCount>2</maxWeakCount>
      <stageThreshold>-2.0264936983585358e-01</stageThreshold>
      <weakClassifiers>
        <_>
          <internalNodes>
            0 -1 1 -616042017 1895928322 1073807364 -788430335 536883338
            163842 1082130435 -83109245</internalNodes>
          <leafValues>
            -9.4936710596084595e-01 8.0310881137847900e-01</leafValues></_>
        <_>
          <internalNodes>
            0 -1 41 -179841569 1627457920 1075904731 1359024139
            -804618101 675282944 139 495604267</internalNodes>
          <leafValues>
            -9.1359245777130127e-01 7.4671769142150879e-01</leafValues></_></weakClassifiers></_>
    <!-- stage 2 -->
    <_>
      <maxWeakCount>2</maxWeakCount>
      <stageThreshold>-1.3687007129192352e-01</stageThreshold>
      <weakClassifiers>
        <_>
          <internalNodes>
            0 -1 2 -742530081 -989622208 1111543813 -753806336
            1090519787 1879101760 -376892669 -104611558</internalNodes>
          <leafValues>
            -9.4849783182144165e-01 7.6649743318557739e-01</leafValues></_>
        <_>
          <internalNodes>
            0 -1 27 -1865031305 274041887 -1743249391 -1807679422
            -2011838245 -528481536 1115793593 -79199743</internalNodes>
          <leafValues>
            -9.0336751937866211e-01 8.1245118379592896e-01</leafValues></_></weakClassifiers></_>
    <!-- stage 3 -->
    <_>
      <maxWeakCount>2</maxWeakCount>
      <stageThreshold>-1.6658808290958405e-01</stageThreshold>
      <weakClassifiers>
        <_>
          <internalNodes>
            0 -1 4 1360181047 -746516473 1627426907 -109049527 814254260
            -1686077440 -913240959 -90598715</internalNodes>
          <leafValues>
            -9.0794980525970459e-01 7.6963353157043457e-01</leafValues></_>
        <_>
          <internalNodes>
            0 -1 26 -1807723075 -720335207 201523997 -1861152511
            -2138731025 -1996455295 134220426 969476616</internalNodes>
          <leafValues>
            -9.3622159957885742e-01 7.7412837743759155e-01</leafValues></_></weakClassifiers></_>
    <!-- stage 4 -->
    <_>
      <maxWeakCount>2</maxWeakCount>
      <stageThreshold>-2.9661756753921509e-01</stageThreshold>
      <weakClassifiers>
        <_>
          <internalNodes>
            0 -1 7 -1723912097 537461891 262155 -1003290613 -2146795381
            -402620416 -998243702 -915701686</internalNodes>
          <leafValues>
            -9.4594591856002808e-01 6.7307692766189575e-01</leafValues></_>
        <_>
          <internalNodes>
            0 -1 33 -850659429 268602389 4194385 131073 -2130078586
            1082359808 -2147122997 -922648057</internalNodes>
          <leafValues>
            -9.6969449520111084e-01 7.0185571908950806e-01</leafValues></_></weakClassifiers></_>
    <!-- stage 5 -->
    <_>
      <maxWeakCount>2</maxWeakCount>
      <stageThreshold>-1.0678493231534958e-01</stageThreshold>
      <weakClassifiers>
        <_>
          <internalNodes>
            0 -1 8 1083159455 -162474235 -2046502573 -82192380 75577875
            -360153079 -1543501543 -1074798191</internalNodes>
          <leafValues>
            -9.4979077577590942e-01 8.2198953628540039e-01</leafValues></_>
        <_>
          <internalNodes>
            0 -1 38 -1819864681 -1988015537 -1829519337 -771422844
            -2117496121 -50296692 -360363277 -293206399</internalNodes>
          <leafValues>
            -9.1013205051422119e-01 8.4300583600997925e-01</leafValues></_></weakClassifiers></_>
    <!-- stage 6 -->
    <_>
      <maxWeakCount>2</maxWeakCount>
      <stageThreshold>-1.1289482563734055e-01</stageThreshold>
      <weakClassifiers>
        <_>
          <internalNodes>
            0 -1 37 -97263809 272630359 -1543339260 -1491562216
            538542221 -1442674096 -1610561428 -792511</internalNodes>
          <leafValues>
            -8.9641433954238892e-01 8.6592179536819458e-01</leafValues></_>
        <_>
          <internalNodes>
            0 -1 15 9572735 -664755897 -1071251161 -869465575 563554767
            -929887470 705265992 -39599413</internalNodes>
          <leafValues>
            -9.7798699140548706e-01 7.8351950645446777e-01</leafValues></_></weakClassifiers></_>
    <!-- stage 7 -->
    <_>
      <maxWeakCount>2</maxWeakCount>
      <stageThreshold>-8.6192861199378967e-02</stageThreshold>
      <weakClassifiers>
        <_>
          <internalNodes>
            0 -1 18 1073741823 -1342180877 2147483647 -8912897
            2147434410 -65537 -289407191 -524293</internalNodes>
          <leafValues>
            -8.6872589588165283e-01 9.0643274784088135e-01</leafValues></_>
        <_>
          <internalNodes>
            0 -1 0 -1800218049 14146829 -2010947265 1707537655
            1050877671 781782854 -1964369309 -35922323</internalNodes>
          <leafValues>
            -9.9262559413909912e-01 7.9404401779174805e-01</leafValues></_></weakClassifiers></_>
    <!-- stage 8 -->
    <_>
      <maxWeakCount>3</maxWeakCount>
      <stageThreshold>-1.0067158937454224e+00</stageThreshold>
      <weakClassifiers>
        <_>
          <internalNodes>
            0 -1 30 -747907301 285233271 114727 285577217 -1073184383
            312573953 -2145318903 -376848349</internalNodes>
          <leafValues>
            -8.1027668714523315e-01 7.6271188259124756e-01</leafValues></_>
        <_>
          <internalNodes>
            0 -1 17 -1727868456 -786366440 -1879031527 -720142323
            -356482912 -1868888056 -1457880887 -372703048</internalNodes>
          <leafValues>
            -8.7907749414443970e-01 7.3979347944259644e-01</leafValues></_>
        <_>
          <internalNodes>
            0 -1 36 -716781361 272812105 268485217 -1858051866
            -796532479 1074790532 -267878080 -354291542</internalNodes>
          <leafValues>
            -9.3623274564743042e-01 7.4404346942901611e-01</leafValues></_></weakClassifiers></_>
    <!-- stage 9 -->
    <_>
      <maxWeakCount>2</maxWeakCount>
      <stageThreshold>-1.5914952754974365e-01</stageThreshold>
      <weakClassifiers>
        <_>
          <internalNodes>
            0 -1 25 -788280933 -750575335 -519746443 1832996864
            -1039466357 -394165677 -108887639 -1534472703</internalNodes>
          <leafValues>
            -8.8284516334533691e-01 7.3821991682052612e-01</leafValues></_>
        <_>
          <internalNodes>
            0 -1 11 -1014942273 2720003 822104337 -1190484883
            -1962424172 -2113755006 -1736302451 -122828401</internalNodes>
          <leafValues>
            -8.9736944437026978e-01 7.8422403335571289e-01</leafValues></_></weakClassifiers></_>
    <!-- stage 10 -->
    <_>
      <maxWeakCount>2</maxWeakCount>
      <stageThreshold>-2.2237545251846313e-01</stageThreshold>
      <weakClassifiers>
        <_>
          <internalNodes>
            0 -1 23 348771549 826654985 159389724 642889793 -268402295
            772087968 -2071952856 -1097685363</internalNodes>
          <leafValues>
            -9.7115385532379150e-01 5.9459459781646729e-01</leafValues></_>
        <_>
          <internalNodes>
            0 -1 35 -1525589097 19595976 -1073667923 -670627806
            -234569081 -1476362238 1611190415 -69789297</internalNodes>
          <leafValues>
            -8.1697005033493042e-01 7.7878755331039429e-01</leafValues></_></weakClassifiers></_>
    <!-- stage 11 -->
    <_>
      <maxWeakCount>2</maxWeakCount>
      <stageThreshold>-1.8121889233589172e-01</stageThreshold>
      <weakClassifiers>
        <_>
          <internalNodes>
            0 -1 6 1905107733 -1152384481 -245255161 -1598005246
            539072899 -2097147383 79760339 -130883026</internalNodes>
          <leafValues>
            -9.2727273702621460e-01 6.3809525966644287e-01</leafValues></_>
        <_>
          <internalNodes>
            0 -1 5 -783102703 -246343551 -2140823423 -568061935
            -762007071 -1986359167 411304072 -901774806</internalNodes>
          <leafValues>
            -8.1931412220001221e-01 7.7653366327285767e-01</leafValues></_></weakClassifiers></_>
    <!-- stage 12 -->
    <_>
      <maxWeakCount>2</maxWeakCount>
      <stageThreshold>-2.1818579733371735e-01</stageThreshold>
      <weakClassifiers>
        <_>
          <internalNodes>
            0 -1 19 1431657311 -1605118101 -1073479520 -2144662239
            1342812301 -1063139318 -761713597 -544562944</internalNodes>
          <leafValues>
            -9.1964286565780640e-01 6.6019415855407715e-01</leafValues></_>
        <_>
          <internalNodes>
            0 -1 12 -780018059 -712932325 83892761 1361576128 -536182355
            -1582301175 -1877964146 -1336178571</internalNodes>
          <leafValues>
            -8.7838000059127808e-01 7.0371472835540771e-01</leafValues></_></weakClassifiers></_>
    <!-- stage 13 -->
    <_>
      <maxWeakCount>2</maxWeakCount>
      <stageThreshold>-1.3877108693122864e-01</stageThreshold>
      <weakClassifiers>
        <_>
          <internalNodes>
            0 -1 39 -529410505 1628487955 -1995108343 682530817
            -1002401776 -536833023 -1035746399 -895884630</internalNodes>
          <leafValues>
            -8.7234044075012207e-01 6.9230771064758301e-01</leafValues></_>
        <_>
          <internalNodes>
            0 -1 31 1397731625 -113158137 1904283969 1249968269
            -937361398 -518455296 -1610612145 -198591998</internalNodes>
          <leafValues>
            -8.3107876777648926e-01 8.1313771009445190e-01</leafValues></_></weakClassifiers></_>
    <!-- stage 14 -->
    <_>
      <maxWeakCount>2</maxWeakCount>
      <stageThreshold>-2.1662002801895142e-01</stageThreshold>
      <weakClassifiers>
        <_>
          <internalNodes>
            0 -1 40 -2125337185 -1605352063 603998495 -711897055
            -2006801510 -391642987 2013266122 -175791710</internalNodes>
          <leafValues>
            -8.9519649744033813e-01 6.7164176702499390e-01</leafValues></_>
        <_>
          <internalNodes>
            0 -1 14 -2147362353 -711376100 1073758749 -637530032
            -2147381013 -385548288 -2012888912 -620740608</internalNodes>
          <leafValues>
            -8.8826179504394531e-01 7.5249165296554565e-01</leafValues></_></weakClassifiers></_>
    <!-- stage 15 -->
    <_>
      <maxWeakCount>2</maxWeakCount>
      <stageThreshold>-2.3892593383789062e-01</stageThreshold>
      <weakClassifiers>
        <_>
          <internalNodes>
            0 -1 20 -389959115 -750739115 1342329155 -515204851
            1250544853 -914128768 -2013139189 -458274237</internalNodes>
          <leafValues>
            -8.7551867961883545e-01 7.4603176116943359e-01</leafValues></_>
        <_>
          <internalNodes>
            0 -1 9 55019319 -1018472207 -224968685 -622475999
            -2142722931 -768986989 -792721238 -906786646</internalNodes>
          <leafValues>
            -9.8495769500732422e-01 7.0495027303695679e-01</leafValues></_></weakClassifiers></_>
    <!-- stage 16 -->
    <_>
      <maxWeakCount>3</maxWeakCount>
      <stageThreshold>-9.8234987258911133e-01</stageThreshold>
      <weakClassifiers>
        <_>
          <internalNodes>
            0 -1 16 -651214721 -216297183 -1515716597 -775925495
            -1811859839 -1471280816 -477927413 -195081401</internalNodes>
          <leafValues>
            -8.6610877513885498e-01 7.1727746725082397e-01</leafValues></_>
        <_>
          <internalNodes>
            0 -1 24 288965087 -778993526 4097 -750563327 -2147467230
            -1744797682 -1341994669 -1349811573</internalNodes>
          <leafValues>
            -8.4828418493270874e-01 7.7033615112304688e-01</leafValues></_>
        <_>
          <internalNodes>
            0 -1 10 -368004293 -793702087 285548545 1677723660
            -1455650431 689148064 789580940 -39277688</internalNodes>
          <leafValues>
            -8.5134315490722656e-01 7.7296459674835205e-01</leafValues></_></weakClassifiers></_>
    <!-- stage 17 -->
    <_>
      <maxWeakCount>2</maxWeakCount>
      <stageThreshold>-1.5723964571952820e-01</stageThreshold>
      <weakClassifiers>
        <_>
          <internalNodes>
            0 -1 13 387270391 -732361613 1694564502 -802028895 34081490
            -2011168304 -2004309493 -25165686</internalNodes>
          <leafValues>
            -8.6610877513885498e-01 7.1727746725082397e-01</leafValues></_>
        <_>
          <internalNodes>
            0 -1 21 1028258743 -1809618123 51479 2116758065 -231734057
            -2001674220 -532666366 -341398397</internalNodes>
          <leafValues>
            -8.7451714277267456e-01 7.1897852420806885e-01</leafValues></_></weakClassifiers></_>
    <!-- stage 18 -->
    <_>
      <maxWeakCount>2</maxWeakCount>
      <stageThreshold>-1.9468575716018677e-01</stageThreshold>
      <weakClassifiers>
        <_>
          <internalNodes>
            0 -1 34 -799730817 1430258330 -524250047 -578792822 264585
            -2138439670 1220542474 -858837533</internalNodes>
          <leafValues>
            -8.6324787139892578e-01 6.7346936464309692e-01</leafValues></_>
        <_>
          <internalNodes>
            0 -1 32 -783719073 830578707 18433 675397632 1380353
            -1877737471 -536844790 -217934974</internalNodes>
          <leafValues>
            -8.6815512180328369e-01 7.3054617643356323e-01</leafValues></_></weakClassifiers></_>
    <!-- stage 19 -->
    <_>
      <maxWeakCount>3</maxWeakCount>
      <stageThreshold>-1.0182820558547974e+00</stageThreshold>
      <weakClassifiers>
        <_>
          <internalNodes>
            0 -1 28 -950348917 -266129007 1073811473 -1285980091
            -896743413 -1023278960 -1859196919 -1460748288</internalNodes>
          <leafValues>
            -8.0566799640655518e-01 7.0491802692413330e-01</leafValues></_>
        <_>
          <internalNodes>
            0 -1 22 -1777257715 -170852223 -2113927935 -134152183
            8919048 -931101781 -1149140990 -979906941</internalNodes>
          <leafValues>
            -8.6430919170379639e-01 6.9640094041824341e-01</leafValues></_>
        <_>
          <internalNodes>
            0 -1 42 -1929952905 -1392122075 1140867481 -1690238395
            -1342013048 -980811765 -1736425287 -58507253</internalNodes>
          <leafValues>
            -9.0901499986648560e-01 7.0030808448791504e-01</leafValues></_></weakClassifiers></_></stages>
  <features>
    <_>
      <rect>
        0 4 8 11</rect></_>
    <_>
      <rect>
        0 4 8 12</rect></_>
    <_>
      <rect>
        0 5 8 10</rect></_>
    <_>
      <rect>
        0 12 13 7</rect></_>
    <_>
      <rect>
        0 13 8 7</rect></_>
    <_>
      <rect>
        0 21 9 5</rect></_>
    <_>
      <rect>
        1 11 6 8</rect></_>
    <_>
      <rect>
        1 13 11 9</rect></_>
    <_>
      <rect>
        2 5 6 11</rect></_>
    <_>
      <rect>
        3 12 7 9</rect></_>
    <_>
      <rect>
        3 21 7 5</rect></_>
    <_>
      <rect>
        4 13 10 8</rect></_>
    <_>
      <rect>
        6 0 7 5</rect></_>
    <_>
      <rect>
        6 14 5 4</rect></_>
    <_>
      <rect>
        6 29 7 2</rect></_>
    <_>
      <rect>
        7 14 5 6</rect></_>
    <_>
      <rect>
        8 1 6 4</rect></_>
    <_>
      <rect>
        8 23 7 4</rect></_>
    <_>
      <rect>
        9 7 6 9</rect></_>
    <_>
      <rect>
        9 9 9 10</rect></_>
    <_>
      <rect>
        11 0 6 5</rect></_>
    <_>
      <rect>
        11 9 4 6</rect></_>
    <_>
      <rect>
        12 7 5 3</rect></_>
    <_>
      <rect>
        13 10 9 8</rect></_>
    <_>
      <rect>
        13 37 1 1</rect></_>
    <_>
      <rect>
        14 0 5 4</rect></_>
    <_>
      <rect>
        14 31 5 3</rect></_>
    <_>
      <rect>
        17 15 7 3</rect></_>
    <_>
      <rect>
        19 1 2 2</rect></_>
    <_>
      <rect>
        19 12 7 9</rect></_>
    <_>
      <rect>
        19 19 7 7</rect></_>
    <_>
      <rect>
        20 9 3 2</rect></_>
    <_>
      <rect>
        21 10 3 4</rect></_>
    <_>
      <rect>
        22 15 6 5</rect></_>
    <_>
      <rect>
        22 18 4 5</rect></_>
    <_>
      <rect>
        22 37 1 1</rect></_>
    <_>
      <rect>
        23 6 4 8</rect></_>
    <_>
      <rect>
        23 7 4 8</rect></_>
    <_>
      <rect>
        24 36 2 1</rect></_>
    <_>
      <rect>
        25 15 5 6</rect></_>
    <_>
      <rect>
        25 30 5 2</rect></_>
    <_>
      <rect>
        26 21 4 4</rect></_>
    <_>
      <rect>
        26 29 3 3</rect></_></features></cascade>
</opencv_storage>
