<?xml version="1.0"?>
<opencv_storage>
<cascade>
  <stageType>BOOST</stageType>
  <featureType>LBP</featureType>
  <height>40</height>
  <width>40</width>
  <stageParams>
    <boostType>GAB</boostType>
    <minHitRate>9.9500000476837158e-01</minHitRate>
    <maxFalseAlarm>5.0000000000000000e-01</maxFalseAlarm>
    <weightTrimRate>9.4999999999999996e-01</weightTrimRate>
    <maxDepth>1</maxDepth>
    <maxWeakCount>100</maxWeakCount></stageParams>
  <featureParams>
    <maxCatCount>256</maxCatCount></featureParams>
  <stageNum>20</stageNum>
  <stages>
    <!-- stage 0 -->
    <_>
      <maxWeakCount>2</maxWeakCount>
      <stageThreshold>-1.3195045292377472e-01</stageThreshold>
      <weakClassifiers>
        <_>
          <internalNodes>
            0 -1 38 -238553892 1359052800 -2147483631 285310978
            1090552552 -2113896448 49338 -810037109</internalNodes>
          <leafValues>
            -9.7489541769027710e-01 8.5340315103530884e-01</leafValues></_>
        <_>
          <internalNodes>
            0 -1 18 -510926615 998441088 81921 453181440 168468635
            524288 1107329419 1376436875</internalNodes>
          <leafValues>
            -9.8535358905792236e-01 8.5574162006378174e-01</leafValues></_></weakClassifiers></_>
    <!-- stage 1 -->
    <_>
      <maxWeakCount>2</maxWeakCount>
      <stageThreshold>-1.1100232601165771e-01</stageThreshold>
      <weakClassifiers>
        <_>
          <internalNodes>
            0 -1 28 -788295266 -1056964598 16777233 1359151248 17465482
            -2147483647 -1073495989 -83107174</internalNodes>
          <leafValues>
            -9.5780593156814575e-01 8.1347149610519409e-01</leafValues></_>
        <_>
          <internalNodes>
            0 -1 36 -787750689 -788332542 -2147483631 285313025
            -1073706808 -939507582 98315 -1962212949</internalNodes>
          <leafValues>
            -9.2447382211685181e-01 8.8206541538238525e-01</leafValues></_></weakClassifiers></_>
    <!-- stage 2 -->
    <_>
      <maxWeakCount>2</maxWeakCount>
      <stageThreshold>-1.3681688904762268e-01</stageThreshold>
      <weakClassifiers>
        <_>
          <internalNodes>
            0 -1 0 -94898361 1363398816 -2147418095 -217993197
            -2146834045 142606337 -628585846 -246103844</internalNodes>
          <leafValues>
            -9.5020747184753418e-01 8.4126985073089600e-01</leafValues></_>
        <_>
          <internalNodes>
            0 -1 22 -788419335 -788462463 -1073627007 -787676767
            537168527 -1626697344 -2055091575 -796603884</internalNodes>
          <leafValues>
            -9.7808670997619629e-01 8.1876415014266968e-01</leafValues></_></weakClassifiers></_>
    <!-- stage 3 -->
    <_>
      <maxWeakCount>2</maxWeakCount>
      <stageThreshold>-1.5367102622985840e-01</stageThreshold>
      <weakClassifiers>
        <_>
          <internalNodes>
            0 -1 26 1346433500 -788004791 -1056931759 -780075008
            -2145352567 -536215422 -2146860918 -877932406</internalNodes>
          <leafValues>
            -9.4999998807907104e-01 8.3157896995544434e-01</leafValues></_>
        <_>
          <internalNodes>
            0 -1 34 -184288392 -754876256 196609 -1325318136 -519847805
            -2136981503 -1995406709 -372266086</internalNodes>
          <leafValues>
            -9.8524999618530273e-01 7.9979890584945679e-01</leafValues></_></weakClassifiers></_>
    <!-- stage 4 -->
    <_>
      <maxWeakCount>2</maxWeakCount>
      <stageThreshold>-1.1187730729579926e-01</stageThreshold>
      <weakClassifiers>
        <_>
          <internalNodes>
            0 -1 1 -236718597 1838141445 -1006468841 -134021051
            -2096004734 -1903688703 -195918754 -68939472</internalNodes>
          <leafValues>
            -9.9134200811386108e-01 7.9899495840072632e-01</leafValues></_>
        <_>
          <internalNodes>
            0 -1 6 1965546207 -553577391 -536735405 -91684861 1879609497
            -650065532 -2146385726 -265058103</internalNodes>
          <leafValues>
            -9.1087228059768677e-01 8.9114129543304443e-01</leafValues></_></weakClassifiers></_>
    <!-- stage 5 -->
    <_>
      <maxWeakCount>2</maxWeakCount>
      <stageThreshold>-1.3241606950759888e-01</stageThreshold>
      <weakClassifiers>
        <_>
          <internalNodes>
            0 -1 4 -841385473 -794541967 404757597 -670228393
            -1987458537 -318029645 -830437036 -208437113</internalNodes>
          <leafValues>
            -9.4999998807907104e-01 8.3157896995544434e-01</leafValues></_>
        <_>
          <internalNodes>
            0 -1 15 -1206665889 -1708522109 68359967 -597896172 8728715
            -536838143 -1006567415 -186211446</internalNodes>
          <leafValues>
            -9.6399503946304321e-01 8.2564705610275269e-01</leafValues></_></weakClassifiers></_>
    <!-- stage 6 -->
    <_>
      <maxWeakCount>2</maxWeakCount>
      <stageThreshold>-1.5798106789588928e-01</stageThreshold>
      <weakClassifiers>
        <_>
          <internalNodes>
            0 -1 32 -1183476585 -1853448127 134610969 -3008500
            1847689383 -224672565 -394212850 -89650496</internalNodes>
          <leafValues>
            -9.8297870159149170e-01 8.2564103603363037e-01</leafValues></_>
        <_>
          <internalNodes>
            0 -1 13 -2029682277 958726163 1157960151 -11451701 134222221
            -1711265768 -2079227765 -4620166</internalNodes>
          <leafValues>
            -9.1508114337921143e-01 8.2499766349792480e-01</leafValues></_></weakClassifiers></_>
    <!-- stage 7 -->
    <_>
      <maxWeakCount>1</maxWeakCount>
      <stageThreshold>8.1818181276321411e-01</stageThreshold>
      <weakClassifiers>
        <_>
          <internalNodes>
            0 -1 35 -514127905 -939455427 135898317 -1182744320
            -2113908229 -670529200 -1486704457 -1362850116</internalNodes>
          <leafValues>
            -1. 8.1818181276321411e-01</leafValues></_></weakClassifiers></_>
    <!-- stage 8 -->
    <_>
      <maxWeakCount>2</maxWeakCount>
      <stageThreshold>-2.0615825057029724e-01</stageThreshold>
      <weakClassifiers>
        <_>
          <internalNodes>
            0 -1 17 -264054530 1406574593 548478209 -754925531
            -771585045 -1643347933 -914128181 -278691581</internalNodes>
          <leafValues>
            -9.4736844301223755e-01 7.2277230024337769e-01</leafValues></_>
        <_>
          <internalNodes>
            0 -1 24 -1726709593 -2139062063 -2147483647 1426523790
            570460762 -1476362229 -2012699992 -1349533618</internalNodes>
          <leafValues>
            -9.2893052101135254e-01 7.7552723884582520e-01</leafValues></_></weakClassifiers></_>
    <!-- stage 9 -->
    <_>
      <maxWeakCount>2</maxWeakCount>
      <stageThreshold>-1.5620435774326324e-01</stageThreshold>
      <weakClassifiers>
        <_>
          <internalNodes>
            0 -1 30 1980096639 -778009533 4473239 67191755 -771227127
            -2145091421 1239978377 -574942805</internalNodes>
          <leafValues>
            -9.1631799936294556e-01 7.8010469675064087e-01</leafValues></_>
        <_>
          <internalNodes>
            0 -1 25 -729482243 -1160249220 687874393 1124179200
            -1970826024 -2121150463 -1995894390 -921124600</internalNodes>
          <leafValues>
            -9.3630909919738770e-01 7.8339159488677979e-01</leafValues></_></weakClassifiers></_>
    <!-- stage 10 -->
    <_>
      <maxWeakCount>2</maxWeakCount>
      <stageThreshold>-5.9291951358318329e-02</stageThreshold>
      <weakClassifiers>
        <_>
          <internalNodes>
            0 -1 23 -525336769 -1878515712 -16777219 -50331649
            1094885175 -16776829 -1588821 -594674281</internalNodes>
          <leafValues>
            -8.5496181249618530e-01 9.1666668653488159e-01</leafValues></_>
        <_>
          <internalNodes>
            0 -1 11 -733183595 -787443454 72353037 -1122890752 590730
            -2139062093 -2122153413 2064416785</internalNodes>
          <leafValues>
            -9.2238962650299072e-01 7.9566985368728638e-01</leafValues></_></weakClassifiers></_>
    <!-- stage 11 -->
    <_>
      <maxWeakCount>2</maxWeakCount>
      <stageThreshold>-1.3224309682846069e-01</stageThreshold>
      <weakClassifiers>
        <_>
          <internalNodes>
            0 -1 2 -1862175439 1610678276 25501873 -1828700159 83887513
            -1979711488 545800346 -529846065</internalNodes>
          <leafValues>
            -9.5020747184753418e-01 8.4126985073089600e-01</leafValues></_>
        <_>
          <internalNodes>
            0 -1 33 -787232812 -1052699645 74432 9503242 -1878982649
            -1861680895 -2134371326 -505052993</internalNodes>
          <leafValues>
            -9.7088861465454102e-01 8.1796437501907349e-01</leafValues></_></weakClassifiers></_>
    <!-- stage 12 -->
    <_>
      <maxWeakCount>2</maxWeakCount>
      <stageThreshold>-1.1129844933748245e-01</stageThreshold>
      <weakClassifiers>
        <_>
          <internalNodes>
            0 -1 37 -1308536233 1359708185 536900633 272760840 11128968
            -1069506367 -1069311934 -825971566</internalNodes>
          <leafValues>
            -9.1902834177017212e-01 8.5792350769042969e-01</leafValues></_>
        <_>
          <internalNodes>
            0 -1 12 -553416417 -799539197 -1593767405 -25132928
            740819343 -1445904223 -2080366486 -427753086</internalNodes>
          <leafValues>
            -9.4280230998992920e-01 8.0772989988327026e-01</leafValues></_></weakClassifiers></_>
    <!-- stage 13 -->
    <_>
      <maxWeakCount>2</maxWeakCount>
      <stageThreshold>-1.0878921300172806e-01</stageThreshold>
      <weakClassifiers>
        <_>
          <internalNodes>
            0 -1 16 16876223 17596617 1264638097 1896990977 294666591
            -99793743 -1610612714 -897073141</internalNodes>
          <leafValues>
            -8.9516127109527588e-01 8.3516484498977661e-01</leafValues></_>
        <_>
          <internalNodes>
            0 -1 3 1343439071 -536854223 140608212 -2117791742 672265
            -765149181 -1031725048 -169809759</internalNodes>
          <leafValues>
            -9.4395405054092407e-01 8.1598663330078125e-01</leafValues></_></weakClassifiers></_>
    <!-- stage 14 -->
    <_>
      <maxWeakCount>2</maxWeakCount>
      <stageThreshold>-1.0506527870893478e-01</stageThreshold>
      <weakClassifiers>
        <_>
          <internalNodes>
            0 -1 10 -258762825 1140916995 -2147483564 1364267277
            135135322 -1878327166 -1048521708 -258889343</internalNodes>
          <leafValues>
            -9.5670998096466064e-01 7.5879395008087158e-01</leafValues></_>
        <_>
          <internalNodes>
            0 -1 31 -2147483361 -721092589 -2130403199 1401184536
            -2130673261 -502233024 -2147252126 -118559616</internalNodes>
          <leafValues>
            -8.6385923624038696e-01 9.2193788290023804e-01</leafValues></_></weakClassifiers></_>
    <!-- stage 15 -->
    <_>
      <maxWeakCount>2</maxWeakCount>
      <stageThreshold>-1.5752980113029480e-01</stageThreshold>
      <weakClassifiers>
        <_>
          <internalNodes>
            0 -1 8 1951909087 1095237793 32920 -708837351 -1577041914
            -1072627712 805996546 -159022702</internalNodes>
          <leafValues>
            -8.9516127109527588e-01 8.3516484498977661e-01</leafValues></_>
        <_>
          <internalNodes>
            0 -1 20 -988673497 -1836843007 268566569 -1857374144
            -2147106815 302022784 -2136426351 -186057964</internalNodes>
          <leafValues>
            -9.9269461631774902e-01 7.8884559869766235e-01</leafValues></_></weakClassifiers></_>
    <!-- stage 16 -->
    <_>
      <maxWeakCount>2</maxWeakCount>
      <stageThreshold>-1.3338059186935425e-01</stageThreshold>
      <weakClassifiers>
        <_>
          <internalNodes>
            0 -1 14 -792481713 1099628546 -1811939327 -934473724
            -2146925429 -1992220655 -1048575975 -94101436</internalNodes>
          <leafValues>
            -9.5708155632019043e-01 7.7664977312088013e-01</leafValues></_>
        <_>
          <internalNodes>
            0 -1 21 268501495 2031158533 1746141905 65864001 66609
            1627555842 268468225 -310212597</internalNodes>
          <leafValues>
            -9.1003030538558960e-01 8.2395726442337036e-01</leafValues></_></weakClassifiers></_>
    <!-- stage 17 -->
    <_>
      <maxWeakCount>2</maxWeakCount>
      <stageThreshold>-1.6007368266582489e-01</stageThreshold>
      <weakClassifiers>
        <_>
          <internalNodes>
            0 -1 5 -55365419 50694153 -1996488557 402686592 415
            -1157036032 749766954 -1270440949</internalNodes>
          <leafValues>
            -9.4827586412429810e-01 7.5757575035095215e-01</leafValues></_>
        <_>
          <internalNodes>
            0 -1 7 -804826687 -805134319 16778049 1208008705 -2000649715
            -939392863 -1031705982 596870683</internalNodes>
          <leafValues>
            -9.1764944791793823e-01 8.4375786781311035e-01</leafValues></_></weakClassifiers></_>
    <!-- stage 18 -->
    <_>
      <maxWeakCount>2</maxWeakCount>
      <stageThreshold>-1.4055736362934113e-01</stageThreshold>
      <weakClassifiers>
        <_>
          <internalNodes>
            0 -1 29 -2062093362 -935178221 9437697 -1055883256 5373969
            -2063064827 -2055208955 -76969531</internalNodes>
          <leafValues>
            -9.2531120777130127e-01 8.0952382087707520e-01</leafValues></_>
        <_>
          <internalNodes>
            0 -1 9 1103217489 269025281 -2143157172 1902121385
            -1063247847 241 -2120996863 -1514869580</internalNodes>
          <leafValues>
            -9.5008116960525513e-01 7.9881238937377930e-01</leafValues></_></weakClassifiers></_>
    <!-- stage 19 -->
    <_>
      <maxWeakCount>2</maxWeakCount>
      <stageThreshold>-1.8510960042476654e-01</stageThreshold>
      <weakClassifiers>
        <_>
          <internalNodes>
            0 -1 19 1364304717 1225003281 33284 1880129792 -2063519231
            -1191042936 -1996323712 -201233024</internalNodes>
          <leafValues>
            -9.4759827852249146e-01 7.3134326934814453e-01</leafValues></_>
        <_>
          <internalNodes>
            0 -1 27 1610973767 1902052241 1627456513 -2147483640 8687619
            -2147434480 2138112 -1956969469</internalNodes>
          <leafValues>
            -9.1645288467407227e-01 8.0526751279830933e-01</leafValues></_></weakClassifiers></_></stages>
  <features>
    <_>
      <rect>
        0 0 13 10</rect></_>
    <_>
      <rect>
        0 1 4 8</rect></_>
    <_>
      <rect>
        0 2 10 6</rect></_>
    <_>
      <rect>
        0 3 5 7</rect></_>
    <_>
      <rect>
        0 7 4 1</rect></_>
    <_>
      <rect>
        0 7 10 6</rect></_>
    <_>
      <rect>
        0 8 9 5</rect></_>
    <_>
      <rect>
        0 9 9 10</rect></_>
    <_>
      <rect>
        0 10 3 2</rect></_>
    <_>
      <rect>
        0 13 7 4</rect></_>
    <_>
      <rect>
        0 14 4 3</rect></_>
    <_>
      <rect>
        0 31 12 3</rect></_>
    <_>
      <rect>
        1 9 9 3</rect></_>
    <_>
      <rect>
        1 22 12 4</rect></_>
    <_>
      <rect>
        3 0 3 3</rect></_>
    <_>
      <rect>
        6 16 9 2</rect></_>
    <_>
      <rect>
        6 21 9 5</rect></_>
    <_>
      <rect>
        7 8 11 6</rect></_>
    <_>
      <rect>
        7 18 8 6</rect></_>
    <_>
      <rect>
        8 8 4 3</rect></_>
    <_>
      <rect>
        8 8 4 6</rect></_>
    <_>
      <rect>
        8 21 10 5</rect></_>
    <_>
      <rect>
        10 0 10 4</rect></_>
    <_>
      <rect>
        10 17 5 7</rect></_>
    <_>
      <rect>
        10 21 5 4</rect></_>
    <_>
      <rect>
        11 34 6 2</rect></_>
    <_>
      <rect>
        13 25 8 5</rect></_>
    <_>
      <rect>
        14 11 8 9</rect></_>
    <_>
      <rect>
        16 5 8 10</rect></_>
    <_>
      <rect>
        17 4 6 10</rect></_>
    <_>
      <rect>
        18 18 5 6</rect></_>
    <_>
      <rect>
        19 17 6 3</rect></_>
    <_>
      <rect>
        20 0 6 3</rect></_>
    <_>
      <rect>
        22 8 6 6</rect></_>
    <_>
      <rect>
        23 5 5 10</rect></_>
    <_>
      <rect>
        24 0 5 3</rect></_>
    <_>
      <rect>
        26 0 3 7</rect></_>
    <_>
      <rect>
        26 4 2 3</rect></_>
    <_>
      <rect>
        27 6 4 7</rect></_></features></cascade>
</opencv_storage>
