<?xml version="1.0"?>
<opencv_storage>
<cascade>
  <stageType>BOOST</stageType>
  <featureType>HAAR</featureType>
  <height>24</height>
  <width>24</width>
  <stageParams>
    <boostType>GAB</boostType>
    <minHitRate>9.9500000476837158e-01</minHitRate>
    <maxFalseAlarm>5.0000000000000000e-01</maxFalseAlarm>
    <weightTrimRate>9.4999999999999996e-01</weightTrimRate>
    <maxDepth>1</maxDepth>
    <maxWeakCount>100</maxWeakCount></stageParams>
  <featureParams>
    <maxCatCount>0</maxCatCount>
    <mode>ALL</mode></featureParams>
  <stageNum>20</stageNum>
  <stages>
    <!-- stage 0 -->
    <_>
      <maxWeakCount>1</maxWeakCount>
      <stageThreshold>9.9004149436950684e-01</stageThreshold>
      <weakClassifiers>
        <_>
          <internalNodes>
            0 -1 28 -2.8845574706792831e-02</internalNodes>
          <leafValues>
            9.9004149436950684e-01 -9.7333335876464844e-01</leafValues></_></weakClassifiers></_>
    <!-- stage 1 -->
    <_>
      <maxWeakCount>1</maxWeakCount>
      <stageThreshold>9.7041904926300049e-01</stageThreshold>
      <weakClassifiers>
        <_>
          <internalNodes>
            0 -1 0 -1.0171407461166382e-01</internalNodes>
          <leafValues>
            9.7041904926300049e-01 -1.</leafValues></_></weakClassifiers></_>
    <!-- stage 2 -->
    <_>
      <maxWeakCount>1</maxWeakCount>
      <stageThreshold>9.5755100250244141e-01</stageThreshold>
      <weakClassifiers>
        <_>
          <internalNodes>
            0 -1 2 7.8758284449577332e-02</internalNodes>
          <leafValues>
            -1. 9.5755100250244141e-01</leafValues></_></weakClassifiers></_>
    <!-- stage 3 -->
    <_>
      <maxWeakCount>1</maxWeakCount>
      <stageThreshold>9.5595431327819824e-01</stageThreshold>
      <weakClassifiers>
        <_>
          <internalNodes>
            0 -1 17 -2.9296593274921179e-03</internalNodes>
          <leafValues>
            9.5595431327819824e-01 -1.</leafValues></_></weakClassifiers></_>
    <!-- stage 4 -->
    <_>
      <maxWeakCount>1</maxWeakCount>
      <stageThreshold>9.6718621253967285e-01</stageThreshold>
      <weakClassifiers>
        <_>
          <internalNodes>
            0 -1 38 8.8914595544338226e-03</internalNodes>
          <leafValues>
            -1. 9.6718621253967285e-01</leafValues></_></weakClassifiers></_>
    <!-- stage 5 -->
    <_>
      <maxWeakCount>1</maxWeakCount>
      <stageThreshold>9.4146341085433960e-01</stageThreshold>
      <weakClassifiers>
        <_>
          <internalNodes>
            0 -1 7 -6.6420650109648705e-03</internalNodes>
          <leafValues>
            9.4146341085433960e-01 -7.9591834545135498e-01</leafValues></_></weakClassifiers></_>
    <!-- stage 6 -->
    <_>
      <maxWeakCount>1</maxWeakCount>
      <stageThreshold>9.3658536672592163e-01</stageThreshold>
      <weakClassifiers>
        <_>
          <internalNodes>
            0 -1 20 6.0191474854946136e-02</internalNodes>
          <leafValues>
            -8.6363637447357178e-01 9.3658536672592163e-01</leafValues></_></weakClassifiers></_>
    <!-- stage 7 -->
    <_>
      <maxWeakCount>2</maxWeakCount>
      <stageThreshold>1.8778948783874512e+00</stageThreshold>
      <weakClassifiers>
        <_>
          <internalNodes>
            0 -1 3 -6.8194091320037842e-02</internalNodes>
          <leafValues>
            -1. 9.2874491214752197e-01</leafValues></_>
        <_>
          <internalNodes>
            0 -1 39 1.6592163592576981e-02</internalNodes>
          <leafValues>
            9.4914996623992920e-01 -9.6349340677261353e-01</leafValues></_></weakClassifiers></_>
    <!-- stage 8 -->
    <_>
      <maxWeakCount>2</maxWeakCount>
      <stageThreshold>1.8742874860763550e+00</stageThreshold>
      <weakClassifiers>
        <_>
          <internalNodes>
            0 -1 19 8.3284363150596619e-02</internalNodes>
          <leafValues>
            9.2400968074798584e-01 -1.</leafValues></_>
        <_>
          <internalNodes>
            0 -1 1 1.3057624921202660e-02</internalNodes>
          <leafValues>
            9.5027774572372437e-01 -1.</leafValues></_></weakClassifiers></_>
    <!-- stage 9 -->
    <_>
      <maxWeakCount>4</maxWeakCount>
      <stageThreshold>7.8668576478958130e-01</stageThreshold>
      <weakClassifiers>
        <_>
          <internalNodes>
            0 -1 13 4.0721665136516094e-03</internalNodes>
          <leafValues>
            -8.4210526943206787e-01 9.2851340770721436e-01</leafValues></_>
        <_>
          <internalNodes>
            0 -1 23 3.0616344884037971e-03</internalNodes>
          <leafValues>
            -4.3435850739479065e-01 9.2299371957778931e-01</leafValues></_>
        <_>
          <internalNodes>
            0 -1 34 6.4054329413920641e-04</internalNodes>
          <leafValues>
            7.9009187221527100e-01 -5.7694113254547119e-01</leafValues></_>
        <_>
          <internalNodes>
            0 -1 26 -2.3920324165374041e-03</internalNodes>
          <leafValues>
            8.6947202682495117e-01 -4.6633049845695496e-01</leafValues></_></weakClassifiers></_>
    <!-- stage 10 -->
    <_>
      <maxWeakCount>3</maxWeakCount>
      <stageThreshold>5.3177249431610107e-01</stageThreshold>
      <weakClassifiers>
        <_>
          <internalNodes>
            0 -1 11 3.2043359242379665e-03</internalNodes>
          <leafValues>
            -1.0280373692512512e-01 9.6551722288131714e-01</leafValues></_>
        <_>
          <internalNodes>
            0 -1 31 1.5386251034215093e-03</internalNodes>
          <leafValues>
            -1.2917120009660721e-02 9.2412608861923218e-01</leafValues></_>
        <_>
          <internalNodes>
            0 -1 40 8.4713008254766464e-04</internalNodes>
          <leafValues>
            -2.8954985737800598e-01 8.0532705783843994e-01</leafValues></_></weakClassifiers></_>
    <!-- stage 11 -->
    <_>
      <maxWeakCount>4</maxWeakCount>
      <stageThreshold>5.6321382522583008e-01</stageThreshold>
      <weakClassifiers>
        <_>
          <internalNodes>
            0 -1 9 4.3887156061828136e-03</internalNodes>
          <leafValues>
            9.2839705944061279e-01 -8.4210526943206787e-01</leafValues></_>
        <_>
          <internalNodes>
            0 -1 12 1.7772826831787825e-03</internalNodes>
          <leafValues>
            -4.2011323571205139e-01 8.0109381675720215e-01</leafValues></_>
        <_>
          <internalNodes>
            0 -1 22 1.6599241644144058e-03</internalNodes>
          <leafValues>
            -4.8140618205070496e-01 8.3045369386672974e-01</leafValues></_>
        <_>
          <internalNodes>
            0 -1 21 -4.6168059110641479e-02</internalNodes>
          <leafValues>
            6.0335260629653931e-01 -6.8487089872360229e-01</leafValues></_></weakClassifiers></_>
    <!-- stage 12 -->
    <_>
      <maxWeakCount>2</maxWeakCount>
      <stageThreshold>1.8717111349105835e+00</stageThreshold>
      <weakClassifiers>
        <_>
          <internalNodes>
            0 -1 5 -3.1575679779052734e-02</internalNodes>
          <leafValues>
            -1. 9.1896271705627441e-01</leafValues></_>
        <_>
          <internalNodes>
            0 -1 27 1.4848312363028526e-02</internalNodes>
          <leafValues>
            9.5274835824966431e-01 -1.</leafValues></_></weakClassifiers></_>
    <!-- stage 13 -->
    <_>
      <maxWeakCount>4</maxWeakCount>
      <stageThreshold>8.3136010169982910e-01</stageThreshold>
      <weakClassifiers>
        <_>
          <internalNodes>
            0 -1 6 -1.5712398290634155e-01</internalNodes>
          <leafValues>
            -7.8947371244430542e-01 9.2653059959411621e-01</leafValues></_>
        <_>
          <internalNodes>
            0 -1 35 3.2207287847995758e-02</internalNodes>
          <leafValues>
            -6.0279643535614014e-01 8.2782268524169922e-01</leafValues></_>
        <_>
          <internalNodes>
            0 -1 30 -1.5225632116198540e-02</internalNodes>
          <leafValues>
            9.2531561851501465e-01 -3.0897253751754761e-01</leafValues></_>
        <_>
          <internalNodes>
            0 -1 25 -3.7976361345499754e-03</internalNodes>
          <leafValues>
            -4.1768965125083923e-01 9.2792731523513794e-01</leafValues></_></weakClassifiers></_>
    <!-- stage 14 -->
    <_>
      <maxWeakCount>4</maxWeakCount>
      <stageThreshold>3.7468326091766357e-01</stageThreshold>
      <weakClassifiers>
        <_>
          <internalNodes>
            0 -1 29 7.9665239900350571e-04</internalNodes>
          <leafValues>
            9.2945039272308350e-01 -8.0000001192092896e-01</leafValues></_>
        <_>
          <internalNodes>
            0 -1 24 1.6274678055197001e-03</internalNodes>
          <leafValues>
            -4.3707156181335449e-01 8.3163046836853027e-01</leafValues></_>
        <_>
          <internalNodes>
            0 -1 32 1.5745926066301763e-04</internalNodes>
          <leafValues>
            7.0265543460845947e-01 -6.3981956243515015e-01</leafValues></_>
        <_>
          <internalNodes>
            0 -1 8 -2.2076351568102837e-02</internalNodes>
          <leafValues>
            6.2391239404678345e-01 -7.4657797813415527e-01</leafValues></_></weakClassifiers></_>
    <!-- stage 15 -->
    <_>
      <maxWeakCount>2</maxWeakCount>
      <stageThreshold>1.8867150545120239e+00</stageThreshold>
      <weakClassifiers>
        <_>
          <internalNodes>
            0 -1 36 1.4907944202423096e-01</internalNodes>
          <leafValues>
            9.2945039272308350e-01 -1.</leafValues></_>
        <_>
          <internalNodes>
            0 -1 18 3.0190367251634598e-02</internalNodes>
          <leafValues>
            -9.0476191043853760e-01 9.5726472139358521e-01</leafValues></_></weakClassifiers></_>
    <!-- stage 16 -->
    <_>
      <maxWeakCount>2</maxWeakCount>
      <stageThreshold>1.8856847286224365e+00</stageThreshold>
      <weakClassifiers>
        <_>
          <internalNodes>
            0 -1 41 -1.4222096651792526e-03</internalNodes>
          <leafValues>
            -1. 9.2780965566635132e-01</leafValues></_>
        <_>
          <internalNodes>
            0 -1 33 3.2564446330070496e-01</internalNodes>
          <leafValues>
            9.5787507295608521e-01 -8.2851761579513550e-01</leafValues></_></weakClassifiers></_>
    <!-- stage 17 -->
    <_>
      <maxWeakCount>2</maxWeakCount>
      <stageThreshold>1.8981007337570190e+00</stageThreshold>
      <weakClassifiers>
        <_>
          <internalNodes>
            0 -1 16 -7.9314649105072021e-02</internalNodes>
          <leafValues>
            -1. 9.3245470523834229e-01</leafValues></_>
        <_>
          <internalNodes>
            0 -1 10 -3.3317394554615021e-03</internalNodes>
          <leafValues>
            9.6564602851867676e-01 -1.</leafValues></_></weakClassifiers></_>
    <!-- stage 18 -->
    <_>
      <maxWeakCount>2</maxWeakCount>
      <stageThreshold>1.8711293935775757e+00</stageThreshold>
      <weakClassifiers>
        <_>
          <internalNodes>
            0 -1 37 7.0853441953659058e-02</internalNodes>
          <leafValues>
            9.3245470523834229e-01 -1.</leafValues></_>
        <_>
          <internalNodes>
            0 -1 15 -1.0211373865604401e-01</internalNodes>
          <leafValues>
            -9.3654102087020874e-01 9.3867474794387817e-01</leafValues></_></weakClassifiers></_>
    <!-- stage 19 -->
    <_>
      <maxWeakCount>2</maxWeakCount>
      <stageThreshold>1.8971641063690186e+00</stageThreshold>
      <weakClassifiers>
        <_>
          <internalNodes>
            0 -1 4 7.5900703668594360e-02</internalNodes>
          <leafValues>
            9.3069308996200562e-01 -9.4594591856002808e-01</leafValues></_>
        <_>
          <internalNodes>
            0 -1 14 3.7405245006084442e-02</internalNodes>
          <leafValues>
            9.6647107601165771e-01 -1.</leafValues></_></weakClassifiers></_></stages>
  <features>
    <_>
      <rects>
        <_>
          0 0 20 22 -1.</_>
        <_>
          5 0 10 22 2.</_></rects>
      <tilted>0</tilted></_>
    <_>
      <rects>
        <_>
          0 4 12 12 -1.</_>
        <_>
          0 7 12 6 2.</_></rects>
      <tilted>0</tilted></_>
    <_>
      <rects>
        <_>
          0 5 20 18 -1.</_>
        <_>
          0 14 20 9 2.</_></rects>
      <tilted>0</tilted></_>
    <_>
      <rects>
        <_>
          0 6 18 18 -1.</_>
        <_>
          0 6 9 9 2.</_>
        <_>
          9 15 9 9 2.</_></rects>
      <tilted>0</tilted></_>
    <_>
      <rects>
        <_>
          0 8 4 16 -1.</_>
        <_>
          0 16 4 8 2.</_></rects>
      <tilted>0</tilted></_>
    <_>
      <rects>
        <_>
          0 9 12 12 -1.</_>
        <_>
          0 9 6 6 2.</_>
        <_>
          6 15 6 6 2.</_></rects>
      <tilted>0</tilted></_>
    <_>
      <rects>
        <_>
          0 10 16 14 -1.</_>
        <_>
          4 10 8 14 2.</_></rects>
      <tilted>0</tilted></_>
    <_>
      <rects>
        <_>
          0 12 4 11 -1.</_>
        <_>
          2 12 2 11 2.</_></rects>
      <tilted>0</tilted></_>
    <_>
      <rects>
        <_>
          0 14 6 10 -1.</_>
        <_>
          3 14 3 10 2.</_></rects>
      <tilted>0</tilted></_>
    <_>
      <rects>
        <_>
          0 19 21 5 -1.</_>
        <_>
          7 19 7 5 3.</_></rects>
      <tilted>0</tilted></_>
    <_>
      <rects>
        <_>
          0 20 24 3 -1.</_>
        <_>
          6 20 12 3 2.</_></rects>
      <tilted>0</tilted></_>
    <_>
      <rects>
        <_>
          0 22 19 2 -1.</_>
        <_>
          0 23 19 1 2.</_></rects>
      <tilted>0</tilted></_>
    <_>
      <rects>
        <_>
          1 22 10 2 -1.</_>
        <_>
          1 23 10 1 2.</_></rects>
      <tilted>0</tilted></_>
    <_>
      <rects>
        <_>
          2 5 8 2 -1.</_>
        <_>
          2 5 4 2 2.</_></rects>
      <tilted>1</tilted></_>
    <_>
      <rects>
        <_>
          2 6 17 9 -1.</_>
        <_>
          2 9 17 3 3.</_></rects>
      <tilted>0</tilted></_>
    <_>
      <rects>
        <_>
          3 2 3 18 -1.</_>
        <_>
          4 8 1 6 9.</_></rects>
      <tilted>0</tilted></_>
    <_>
      <rects>
        <_>
          3 5 14 3 -1.</_>
        <_>
          3 5 7 3 2.</_></rects>
      <tilted>1</tilted></_>
    <_>
      <rects>
        <_>
          4 0 15 12 -1.</_>
        <_>
          4 6 15 6 2.</_></rects>
      <tilted>0</tilted></_>
    <_>
      <rects>
        <_>
          4 1 18 14 -1.</_>
        <_>
          13 1 9 14 2.</_></rects>
      <tilted>0</tilted></_>
    <_>
      <rects>
        <_>
          4 2 16 20 -1.</_>
        <_>
          4 2 8 10 2.</_>
        <_>
          12 12 8 10 2.</_></rects>
      <tilted>0</tilted></_>
    <_>
      <rects>
        <_>
          4 8 20 8 -1.</_>
        <_>
          14 8 10 8 2.</_></rects>
      <tilted>0</tilted></_>
    <_>
      <rects>
        <_>
          5 10 15 14 -1.</_>
        <_>
          10 10 5 14 3.</_></rects>
      <tilted>0</tilted></_>
    <_>
      <rects>
        <_>
          6 4 2 12 -1.</_>
        <_>
          6 10 2 6 2.</_></rects>
      <tilted>0</tilted></_>
    <_>
      <rects>
        <_>
          6 22 9 2 -1.</_>
        <_>
          6 23 9 1 2.</_></rects>
      <tilted>0</tilted></_>
    <_>
      <rects>
        <_>
          7 0 2 5 -1.</_>
        <_>
          7 0 1 5 2.</_></rects>
      <tilted>1</tilted></_>
    <_>
      <rects>
        <_>
          7 6 5 6 -1.</_>
        <_>
          5 8 5 2 3.</_></rects>
      <tilted>1</tilted></_>
    <_>
      <rects>
        <_>
          8 0 3 2 -1.</_>
        <_>
          8 1 3 1 2.</_></rects>
      <tilted>0</tilted></_>
    <_>
      <rects>
        <_>
          8 5 6 3 -1.</_>
        <_>
          10 6 2 1 9.</_></rects>
      <tilted>0</tilted></_>
    <_>
      <rects>
        <_>
          8 9 5 8 -1.</_>
        <_>
          8 9 5 4 2.</_></rects>
      <tilted>1</tilted></_>
    <_>
      <rects>
        <_>
          9 9 5 2 -1.</_>
        <_>
          9 10 5 1 2.</_></rects>
      <tilted>0</tilted></_>
    <_>
      <rects>
        <_>
          9 10 8 12 -1.</_>
        <_>
          11 10 4 12 2.</_></rects>
      <tilted>0</tilted></_>
    <_>
      <rects>
        <_>
          9 22 4 2 -1.</_>
        <_>
          9 23 4 1 2.</_></rects>
      <tilted>0</tilted></_>
    <_>
      <rects>
        <_>
          11 7 3 6 -1.</_>
        <_>
          11 10 3 3 2.</_></rects>
      <tilted>0</tilted></_>
    <_>
      <rects>
        <_>
          12 5 12 19 -1.</_>
        <_>
          18 5 6 19 2.</_></rects>
      <tilted>0</tilted></_>
    <_>
      <rects>
        <_>
          12 6 2 5 -1.</_>
        <_>
          13 6 1 5 2.</_></rects>
      <tilted>0</tilted></_>
    <_>
      <rects>
        <_>
          12 7 6 14 -1.</_>
        <_>
          12 14 6 7 2.</_></rects>
      <tilted>0</tilted></_>
    <_>
      <rects>
        <_>
          15 1 8 10 -1.</_>
        <_>
          15 1 8 5 2.</_></rects>
      <tilted>1</tilted></_>
    <_>
      <rects>
        <_>
          16 7 8 8 -1.</_>
        <_>
          16 7 8 4 2.</_></rects>
      <tilted>1</tilted></_>
    <_>
      <rects>
        <_>
          16 15 8 9 -1.</_>
        <_>
          20 15 4 9 2.</_></rects>
      <tilted>0</tilted></_>
    <_>
      <rects>
        <_>
          18 0 2 18 -1.</_>
        <_>
          18 0 1 18 2.</_></rects>
      <tilted>1</tilted></_>
    <_>
      <rects>
        <_>
          23 4 1 20 -1.</_>
        <_>
          23 9 1 10 2.</_></rects>
      <tilted>0</tilted></_>
    <_>
      <rects>
        <_>
          23 21 1 2 -1.</_>
        <_>
          23 21 1 1 2.</_></rects>
      <tilted>1</tilted></_></features></cascade>
</opencv_storage>
