<?xml version="1.0"?>
<opencv_storage>
<cascade>
  <stageType>BOOST</stageType>
  <featureType>LBP</featureType>
  <height>40</height>
  <width>40</width>
  <stageParams>
    <boostType>GAB</boostType>
    <minHitRate>9.9500000476837158e-01</minHitRate>
    <maxFalseAlarm>5.0000000000000000e-01</maxFalseAlarm>
    <weightTrimRate>9.4999999999999996e-01</weightTrimRate>
    <maxDepth>1</maxDepth>
    <maxWeakCount>100</maxWeakCount></stageParams>
  <featureParams>
    <maxCatCount>256</maxCatCount></featureParams>
  <stageNum>20</stageNum>
  <stages>
    <!-- stage 0 -->
    <_>
      <maxWeakCount>1</maxWeakCount>
      <stageThreshold>8.6528497934341431e-01</stageThreshold>
      <weakClassifiers>
        <_>
          <internalNodes>
            0 -1 10 -687091201 -787935231 268435481 -753397760
            -938966853 402685952 -2113892177 1610645640</internalNodes>
          <leafValues>
            -1. 8.6528497934341431e-01</leafValues></_></weakClassifiers></_>
    <!-- stage 1 -->
    <_>
      <maxWeakCount>2</maxWeakCount>
      <stageThreshold>-9.3759134411811829e-02</stageThreshold>
      <weakClassifiers>
        <_>
          <internalNodes>
            0 -1 31 -209239592 -788463616 81 -1862188799 98440 0 32778
            -853814613</internalNodes>
          <leafValues>
            -9.7969543933868408e-01 9.4535517692565918e-01</leafValues></_>
        <_>
          <internalNodes>
            0 -1 19 -804634538 -687864829 153 1224753424 -1073561400
            -1979711359 138 -653598325</internalNodes>
          <leafValues>
            -1. 8.8593631982803345e-01</leafValues></_></weakClassifiers></_>
    <!-- stage 2 -->
    <_>
      <maxWeakCount>2</maxWeakCount>
      <stageThreshold>-7.6808176934719086e-02</stageThreshold>
      <weakClassifiers>
        <_>
          <internalNodes>
            0 -1 9 1637339547 1363443717 -1879048191 -737009006 2986269
            -796229631 -532051839 -457129461</internalNodes>
          <leafValues>
            -9.6791446208953857e-01 8.3419686555862427e-01</leafValues></_>
        <_>
          <internalNodes>
            0 -1 22 -536632881 -1827650423 285212695 17236611 36994
            -1610022909 238465 -575733105</internalNodes>
          <leafValues>
            -9.1100507974624634e-01 9.0069466829299927e-01</leafValues></_></weakClassifiers></_>
    <!-- stage 3 -->
    <_>
      <maxWeakCount>2</maxWeakCount>
      <stageThreshold>-6.3153304159641266e-02</stageThreshold>
      <weakClassifiers>
        <_>
          <internalNodes>
            0 -1 24 -246156962 1561354496 1359249411 1426079764
            -2013265782 -2012971008 -2147450877 -104086870</internalNodes>
          <leafValues>
            -9.5811516046524048e-01 8.6243385076522827e-01</leafValues></_>
        <_>
          <internalNodes>
            0 -1 17 -788294741 -1862172671 16401 286261251 -922709879
            -2147483648 -2147377014 -607154005</internalNodes>
          <leafValues>
            -9.2558717727661133e-01 9.0087831020355225e-01</leafValues></_></weakClassifiers></_>
    <!-- stage 4 -->
    <_>
      <maxWeakCount>2</maxWeakCount>
      <stageThreshold>-4.9176093190908432e-02</stageThreshold>
      <weakClassifiers>
        <_>
          <internalNodes>
            0 -1 2 -216673319 -2146365421 -167933 1983922305 -2146408790
            -385712000 537430041 -255630117</internalNodes>
          <leafValues>
            -8.7500000000000000e-01 9.4186043739318848e-01</leafValues></_>
        <_>
          <internalNodes>
            0 -1 13 364192015 1109856985 -1597957743 -1778196348
            -2147284525 -1002045368 -930986875 -358302864</internalNodes>
          <leafValues>
            -9.9103653430938721e-01 8.5488194227218628e-01</leafValues></_></weakClassifiers></_>
    <!-- stage 5 -->
    <_>
      <maxWeakCount>2</maxWeakCount>
      <stageThreshold>-9.7202129662036896e-02</stageThreshold>
      <weakClassifiers>
        <_>
          <internalNodes>
            0 -1 7 -1055796973 -502199293 -1543427834 -247423997
            1342775562 -599760127 -398407520 -257891679</internalNodes>
          <leafValues>
            -9.7860962152481079e-01 8.4455960988998413e-01</leafValues></_>
        <_>
          <internalNodes>
            0 -1 21 -1739549697 1578402055 1883314291 -255835897
            -1509818023 -462126764 -1692364351 -196042701</internalNodes>
          <leafValues>
            -9.4176173210144043e-01 9.0031230449676514e-01</leafValues></_></weakClassifiers></_>
    <!-- stage 6 -->
    <_>
      <maxWeakCount>2</maxWeakCount>
      <stageThreshold>-1.3134978711605072e-01</stageThreshold>
      <weakClassifiers>
        <_>
          <internalNodes>
            0 -1 36 -788457212 -1868981915 -2130614509 -1320187759
            -2054637420 -914354137 -1367310176 -338966447</internalNodes>
          <leafValues>
            -9.6858638525009155e-01 8.7301588058471680e-01</leafValues></_>
        <_>
          <internalNodes>
            0 -1 33 1242019780 991133957 637601823 -753991168 -134028373
            -2013171008 673613933 -1987073559</internalNodes>
          <leafValues>
            -9.9104654788970947e-01 8.3723658323287964e-01</leafValues></_></weakClassifiers></_>
    <!-- stage 7 -->
    <_>
      <maxWeakCount>2</maxWeakCount>
      <stageThreshold>-8.8851414620876312e-02</stageThreshold>
      <weakClassifiers>
        <_>
          <internalNodes>
            0 -1 8 -1819586193 -1877778431 24971 -804786048 -683337437
            -2138561535 -1199435635 -125795440</internalNodes>
          <leafValues>
            -9.7894734144210815e-01 8.7368422746658325e-01</leafValues></_>
        <_>
          <internalNodes>
            0 -1 0 -2133075169 -2147286395 -1721466619 -1016491815
            -939523833 274942983 -1056399093 -386851244</internalNodes>
          <leafValues>
            -9.5695018768310547e-01 8.9009594917297363e-01</leafValues></_></weakClassifiers></_>
    <!-- stage 8 -->
    <_>
      <maxWeakCount>2</maxWeakCount>
      <stageThreshold>-1.0539700090885162e-01</stageThreshold>
      <weakClassifiers>
        <_>
          <internalNodes>
            0 -1 28 -1609154241 650663699 -16383 -16777217 -1
            -1283415424 -65537 -123994341</internalNodes>
          <leafValues>
            -8.5365855693817139e-01 8.8571429252624512e-01</leafValues></_>
        <_>
          <internalNodes>
            0 -1 30 1968952319 322798653 -771716597 1879052456
            1075871881 -667866828 -1878515159 -997031792</internalNodes>
          <leafValues>
            -9.9111127853393555e-01 7.7903681993484497e-01</leafValues></_></weakClassifiers></_>
    <!-- stage 9 -->
    <_>
      <maxWeakCount>1</maxWeakCount>
      <stageThreshold>7.4757283926010132e-01</stageThreshold>
      <weakClassifiers>
        <_>
          <internalNodes>
            0 -1 12 606130654 -209649616 1375802649 1359052817
            -2146856775 -2055208799 -1996455783 -141197301</internalNodes>
          <leafValues>
            -1. 7.4757283926010132e-01</leafValues></_></weakClassifiers></_>
    <!-- stage 10 -->
    <_>
      <maxWeakCount>2</maxWeakCount>
      <stageThreshold>-1.7353758215904236e-01</stageThreshold>
      <weakClassifiers>
        <_>
          <internalNodes>
            0 -1 35 -920284676 -518938059 134750465 -796790501
            1117847697 -2146432493 -1072396277 -136842741</internalNodes>
          <leafValues>
            -9.3478262424468994e-01 7.7551019191741943e-01</leafValues></_>
        <_>
          <internalNodes>
            0 -1 4 -720283693 -1865313787 -1591475039 -1500904675
            1075610811 -2006186992 -534740920 -257501887</internalNodes>
          <leafValues>
            -9.4904780387878418e-01 7.7083432674407959e-01</leafValues></_></weakClassifiers></_>
    <!-- stage 11 -->
    <_>
      <maxWeakCount>2</maxWeakCount>
      <stageThreshold>-1.8111135065555573e-01</stageThreshold>
      <weakClassifiers>
        <_>
          <internalNodes>
            0 -1 32 1561579803 1897477445 -1056732925 -645902336
            1095959315 1744896004 -1862262309 -70465848</internalNodes>
          <leafValues>
            -9.6629214286804199e-01 7.5247526168823242e-01</leafValues></_>
        <_>
          <internalNodes>
            0 -1 15 -1929268349 21299287 -1005545309 -1053681648
            17600883 -670284606 -2004827640 -320867690</internalNodes>
          <leafValues>
            -9.3358659744262695e-01 7.9688364267349243e-01</leafValues></_></weakClassifiers></_>
    <!-- stage 12 -->
    <_>
      <maxWeakCount>2</maxWeakCount>
      <stageThreshold>-1.2205683439970016e-01</stageThreshold>
      <weakClassifiers>
        <_>
          <internalNodes>
            0 -1 18 1346978293 321454088 -2076044425 419496262
            1117843899 -1297087360 270565549 -652214012</internalNodes>
          <leafValues>
            -8.7564766407012939e-01 7.9679143428802490e-01</leafValues></_>
        <_>
          <internalNodes>
            0 -1 29 -2010062881 -1005072383 570520983 12945219 537601306
            -1879015264 -1038074870 -879292949</internalNodes>
          <leafValues>
            -9.1884827613830566e-01 8.0238872766494751e-01</leafValues></_></weakClassifiers></_>
    <!-- stage 13 -->
    <_>
      <maxWeakCount>2</maxWeakCount>
      <stageThreshold>-2.0537012815475464e-01</stageThreshold>
      <weakClassifiers>
        <_>
          <internalNodes>
            0 -1 14 1124536135 -1656536755 -1073741819 -1807711744
            -989753325 -2013179899 61520 -561464656</internalNodes>
          <leafValues>
            -9.8837208747863770e-01 7.2115385532379150e-01</leafValues></_>
        <_>
          <internalNodes>
            0 -1 34 1089715159 -1052734717 4368465 -257130302
            -2147205047 -938409847 -2143248113 288081939</internalNodes>
          <leafValues>
            -9.2652398347854614e-01 8.1767344474792480e-01</leafValues></_></weakClassifiers></_>
    <!-- stage 14 -->
    <_>
      <maxWeakCount>2</maxWeakCount>
      <stageThreshold>-9.3542501330375671e-02</stageThreshold>
      <weakClassifiers>
        <_>
          <internalNodes>
            0 -1 1 -628014593 -1810792155 2136327 -1987362809 1083457674
            -1879048191 -1870069752 -1260263915</internalNodes>
          <leafValues>
            -8.8659793138504028e-01 8.1720429658889771e-01</leafValues></_>
        <_>
          <internalNodes>
            0 -1 26 -988888693 16801801 16908829 -2088205048 -1878982169
            -661315247 -1744753910 -645312055</internalNodes>
          <leafValues>
            -9.1074681282043457e-01 8.1405413150787354e-01</leafValues></_></weakClassifiers></_>
    <!-- stage 15 -->
    <_>
      <maxWeakCount>2</maxWeakCount>
      <stageThreshold>-1.9353927671909332e-01</stageThreshold>
      <weakClassifiers>
        <_>
          <internalNodes>
            0 -1 3 151363575 339742786 33554473 -511438319 -1853877925
            -935296000 -397885429 -260366294</internalNodes>
          <leafValues>
            -9.2307692766189575e-01 7.4747473001480103e-01</leafValues></_>
        <_>
          <internalNodes>
            0 -1 6 -778582569 1103319199 16842880 -1858055636 1074700381
            -2011156352 -1526168442 -182343007</internalNodes>
          <leafValues>
            -9.4101405143737793e-01 7.5817346572875977e-01</leafValues></_></weakClassifiers></_>
    <!-- stage 16 -->
    <_>
      <maxWeakCount>2</maxWeakCount>
      <stageThreshold>-1.8865360319614410e-01</stageThreshold>
      <weakClassifiers>
        <_>
          <internalNodes>
            0 -1 5 -796408629 1090618017 16842753 -796032573 -1056931312
            -2146435072 -1072634880 -105055636</internalNodes>
          <leafValues>
            -9.7727274894714355e-01 7.4509805440902710e-01</leafValues></_>
        <_>
          <internalNodes>
            0 -1 25 -2107314721 1612808307 34538449 18424717 -334986623
            -2004810734 -2138871794 -899248469</internalNodes>
          <leafValues>
            -9.3375164270401001e-01 8.0279964208602905e-01</leafValues></_></weakClassifiers></_>
    <!-- stage 17 -->
    <_>
      <maxWeakCount>2</maxWeakCount>
      <stageThreshold>-1.6799563169479370e-01</stageThreshold>
      <weakClassifiers>
        <_>
          <internalNodes>
            0 -1 20 -793328202 -2145382251 1092698908 -804986619
            -2109456059 1644249152 -1031254909 -207916409</internalNodes>
          <leafValues>
            -9.4444441795349121e-01 7.5000000000000000e-01</leafValues></_>
        <_>
          <internalNodes>
            0 -1 27 -804195523 -732888511 -2129950717 -190840619 66355
            134218240 -1593753338 -252523676</internalNodes>
          <leafValues>
            -9.1799563169479370e-01 7.9268646240234375e-01</leafValues></_></weakClassifiers></_>
    <!-- stage 18 -->
    <_>
      <maxWeakCount>2</maxWeakCount>
      <stageThreshold>-1.3666814565658569e-01</stageThreshold>
      <weakClassifiers>
        <_>
          <internalNodes>
            0 -1 37 -323751683 -2147377141 -2147483647 -1589608181
            -2111733495 165898 838977537 -1043600447</internalNodes>
          <leafValues>
            -8.9473682641983032e-01 7.8947371244430542e-01</leafValues></_>
        <_>
          <internalNodes>
            0 -1 23 -1055718525 1145111793 1107297752 1100808322
            1275077747 -1739980664 -1879011837 -611608437</internalNodes>
          <leafValues>
            -9.2614185810089111e-01 7.9678964614868164e-01</leafValues></_></weakClassifiers></_>
    <!-- stage 19 -->
    <_>
      <maxWeakCount>2</maxWeakCount>
      <stageThreshold>-1.1976151913404465e-01</stageThreshold>
      <weakClassifiers>
        <_>
          <internalNodes>
            0 -1 16 475550037 -168818620 -2147475572 -685895550
            -2143223798 -1240465008 -666612085 -8343528</internalNodes>
          <leafValues>
            -8.8601034879684448e-01 8.0748665332794189e-01</leafValues></_>
        <_>
          <internalNodes>
            0 -1 11 1252219291 -1068449600 -1971042147 -1177485310
            -1337554917 -1055752048 -939471348 -523051002</internalNodes>
          <leafValues>
            -9.2724812030792236e-01 8.3062607049942017e-01</leafValues></_></weakClassifiers></_></stages>
  <features>
    <_>
      <rect>
        0 0 4 8</rect></_>
    <_>
      <rect>
        0 0 5 4</rect></_>
    <_>
      <rect>
        0 0 10 7</rect></_>
    <_>
      <rect>
        0 1 10 6</rect></_>
    <_>
      <rect>
        0 6 9 6</rect></_>
    <_>
      <rect>
        0 8 1 7</rect></_>
    <_>
      <rect>
        0 14 4 4</rect></_>
    <_>
      <rect>
        1 9 4 6</rect></_>
    <_>
      <rect>
        3 4 3 6</rect></_>
    <_>
      <rect>
        3 6 9 6</rect></_>
    <_>
      <rect>
        4 0 12 3</rect></_>
    <_>
      <rect>
        4 3 7 3</rect></_>
    <_>
      <rect>
        5 25 10 5</rect></_>
    <_>
      <rect>
        8 13 1 3</rect></_>
    <_>
      <rect>
        10 12 3 4</rect></_>
    <_>
      <rect>
        10 21 6 5</rect></_>
    <_>
      <rect>
        10 31 7 3</rect></_>
    <_>
      <rect>
        11 18 6 6</rect></_>
    <_>
      <rect>
        11 34 7 2</rect></_>
    <_>
      <rect>
        12 12 8 4</rect></_>
    <_>
      <rect>
        15 5 7 10</rect></_>
    <_>
      <rect>
        15 14 5 3</rect></_>
    <_>
      <rect>
        15 18 7 6</rect></_>
    <_>
      <rect>
        15 19 4 6</rect></_>
    <_>
      <rect>
        16 8 8 8</rect></_>
    <_>
      <rect>
        16 20 6 6</rect></_>
    <_>
      <rect>
        16 31 5 3</rect></_>
    <_>
      <rect>
        17 4 5 3</rect></_>
    <_>
      <rect>
        17 10 5 4</rect></_>
    <_>
      <rect>
        17 17 6 7</rect></_>
    <_>
      <rect>
        18 3 6 3</rect></_>
    <_>
      <rect>
        21 6 6 7</rect></_>
    <_>
      <rect>
        24 0 4 3</rect></_>
    <_>
      <rect>
        26 10 4 5</rect></_>
    <_>
      <rect>
        28 0 4 7</rect></_>
    <_>
      <rect>
        28 7 4 7</rect></_>
    <_>
      <rect>
        29 14 3 2</rect></_>
    <_>
      <rect>
        33 9 2 6</rect></_></features></cascade>
</opencv_storage>
