<?xml version="1.0"?>
<opencv_storage>
<cascade>
  <stageType>BOOST</stageType>
  <featureType>LBP</featureType>
  <height>40</height>
  <width>40</width>
  <stageParams>
    <boostType>GAB</boostType>
    <minHitRate>9.9500000476837158e-01</minHitRate>
    <maxFalseAlarm>5.0000000000000000e-01</maxFalseAlarm>
    <weightTrimRate>9.4999999999999996e-01</weightTrimRate>
    <maxDepth>1</maxDepth>
    <maxWeakCount>100</maxWeakCount></stageParams>
  <featureParams>
    <maxCatCount>256</maxCatCount></featureParams>
  <stageNum>20</stageNum>
  <stages>
    <!-- stage 0 -->
    <_>
      <maxWeakCount>2</maxWeakCount>
      <stageThreshold>-2.4308840930461884e-01</stageThreshold>
      <weakClassifiers>
        <_>
          <internalNodes>
            0 -1 2 1497616879 1933935181 822100291 -788201215 1610945682
            578814081 -1065283437 -1070405</internalNodes>
          <leafValues>
            -9.7994989156723022e-01 7.5124377012252808e-01</leafValues></_>
        <_>
          <internalNodes>
            0 -1 35 1368117707 289735179 537002305 17387847 276840619
            -1996488574 404800411 -1617957953</internalNodes>
          <leafValues>
            -9.6056139469146729e-01 7.3686146736145020e-01</leafValues></_></weakClassifiers></_>
    <!-- stage 1 -->
    <_>
      <maxWeakCount>2</maxWeakCount>
      <stageThreshold>-2.1407838165760040e-01</stageThreshold>
      <weakClassifiers>
        <_>
          <internalNodes>
            0 -1 1 -786968097 -654060990 -1040137203 -687221693 17367275
            1662173248 -1073151985 -573578993</internalNodes>
          <leafValues>
            -9.3483710289001465e-01 6.6169154644012451e-01</leafValues></_>
        <_>
          <internalNodes>
            0 -1 24 -748948481 -788332403 1073741833 -201244271
            -469729142 -2147483583 75645067 -1750371689</internalNodes>
          <leafValues>
            -8.7576991319656372e-01 7.5329726934432983e-01</leafValues></_></weakClassifiers></_>
    <!-- stage 2 -->
    <_>
      <maxWeakCount>2</maxWeakCount>
      <stageThreshold>-3.0250951647758484e-01</stageThreshold>
      <weakClassifiers>
        <_>
          <internalNodes>
            0 -1 10 844480311 -784006731 822083857 -75210301 -1971278437
            -243138293 -846905141 -5389414</internalNodes>
          <leafValues>
            -9.6866840124130249e-01 6.0368663072586060e-01</leafValues></_>
        <_>
          <internalNodes>
            0 -1 34 -779225185 865108993 1437647684 -1761550197
            -868113753 -401014719 -651844967 -51389846</internalNodes>
          <leafValues>
            -9.0619611740112305e-01 8.0881959199905396e-01</leafValues></_></weakClassifiers></_>
    <!-- stage 3 -->
    <_>
      <maxWeakCount>2</maxWeakCount>
      <stageThreshold>-2.9880031943321228e-01</stageThreshold>
      <weakClassifiers>
        <_>
          <internalNodes>
            0 -1 26 -574370341 -112119237 -1341487037 1929504795
            -1576754273 -1198816888 -2113812338 -1601223935</internalNodes>
          <leafValues>
            -9.2911392450332642e-01 6.1951220035552979e-01</leafValues></_>
        <_>
          <internalNodes>
            0 -1 38 -1055399169 1548955666 1831919903 38502540
            -1655594609 -1044248447 -1573338965 -825238769</internalNodes>
          <leafValues>
            -9.1831248998641968e-01 6.9758987426757812e-01</leafValues></_></weakClassifiers></_>
    <!-- stage 4 -->
    <_>
      <maxWeakCount>2</maxWeakCount>
      <stageThreshold>-2.1349778771400452e-01</stageThreshold>
      <weakClassifiers>
        <_>
          <internalNodes>
            0 -1 9 2084503423 1513816037 -568747553 -12356717 1355623345
            -1401364455 -198901255 -403296</internalNodes>
          <leafValues>
            -9.5073890686035156e-01 7.5257730484008789e-01</leafValues></_>
        <_>
          <internalNodes>
            0 -1 44 -1492387361 -1538275941 -609053473 -285888039
            -1741042705 -393624361 671931632 -52863575</internalNodes>
          <leafValues>
            -9.6079593896865845e-01 7.3724114894866943e-01</leafValues></_></weakClassifiers></_>
    <!-- stage 5 -->
    <_>
      <maxWeakCount>3</maxWeakCount>
      <stageThreshold>-1.1066535711288452e+00</stageThreshold>
      <weakClassifiers>
        <_>
          <internalNodes>
            0 -1 20 897408863 -1353604139 -275659983 -375025033
            741631717 -1140652543 -365777829 -4731701</internalNodes>
          <leafValues>
            -9.3000000715255737e-01 6.6000002622604370e-01</leafValues></_>
        <_>
          <internalNodes>
            0 -1 19 -174590017 648159289 -855304939 -1257786277
            -321741661 -1062015310 -11216705 -318975789</internalNodes>
          <leafValues>
            -8.2597440481185913e-01 8.6881607770919800e-01</leafValues></_>
        <_>
          <internalNodes>
            0 -1 45 -1486886915 -1591782522 -779883757 -184167232
            854094811 1640267786 -1247518838 -1110741109</internalNodes>
          <leafValues>
            -9.4067913293838501e-01 7.1949136257171631e-01</leafValues></_></weakClassifiers></_>
    <!-- stage 6 -->
    <_>
      <maxWeakCount>2</maxWeakCount>
      <stageThreshold>-2.8604701161384583e-01</stageThreshold>
      <weakClassifiers>
        <_>
          <internalNodes>
            0 -1 42 -740298297 54547281 49 -2122280940 -922433470
            -1610612703 1610729496 -741096561</internalNodes>
          <leafValues>
            -8.9578163623809814e-01 6.1421316862106323e-01</leafValues></_>
        <_>
          <internalNodes>
            0 -1 23 -45640516 -717155312 -1996452791 -650035195
            -1610563421 -125255544 -2105540181 -1727280245</internalNodes>
          <leafValues>
            -9.0026021003723145e-01 7.2689872980117798e-01</leafValues></_></weakClassifiers></_>
    <!-- stage 7 -->
    <_>
      <maxWeakCount>3</maxWeakCount>
      <stageThreshold>-1.0350953340530396e+00</stageThreshold>
      <weakClassifiers>
        <_>
          <internalNodes>
            0 -1 3 1633259959 -804782045 1095264337 754975364 671123866
            8458242 167772291 -74790781</internalNodes>
          <leafValues>
            -8.8489210605621338e-01 7.0491802692413330e-01</leafValues></_>
        <_>
          <internalNodes>
            0 -1 36 -1589160457 622428425 -1878916577 -1249542077
            -2139055989 -805272960 -1434400631 -1631094613</internalNodes>
          <leafValues>
            -8.5225462913513184e-01 7.9462075233459473e-01</leafValues></_>
        <_>
          <internalNodes>
            0 -1 25 369842607 1024835591 -2080354238 1593856473
            1209032801 -2138963968 -520093140 -74724662</internalNodes>
          <leafValues>
            -9.4482398033142090e-01 7.0641112327575684e-01</leafValues></_></weakClassifiers></_>
    <!-- stage 8 -->
    <_>
      <maxWeakCount>3</maxWeakCount>
      <stageThreshold>-1.0877926349639893e+00</stageThreshold>
      <weakClassifiers>
        <_>
          <internalNodes>
            0 -1 4 1392877375 -1786670775 1162097025 -720043418
            270701015 -83623605 134220193 -83113086</internalNodes>
          <leafValues>
            -9.5854920148849487e-01 6.0747665166854858e-01</leafValues></_>
        <_>
          <internalNodes>
            0 -1 0 -675159085 -788461497 288444465 -885981184 918666222
            1008881795 -234224991 -290960013</internalNodes>
          <leafValues>
            -8.7131416797637939e-01 6.9941186904907227e-01</leafValues></_>
        <_>
          <internalNodes>
            0 -1 5 -1278569477 -669515198 1207998493 289868808
            -1810839384 -968439678 -2111520638 -207454054</internalNodes>
          <leafValues>
            -8.2865536212921143e-01 8.4024333953857422e-01</leafValues></_></weakClassifiers></_>
    <!-- stage 9 -->
    <_>
      <maxWeakCount>2</maxWeakCount>
      <stageThreshold>-4.4732004404067993e-01</stageThreshold>
      <weakClassifiers>
        <_>
          <internalNodes>
            0 -1 21 696370123 897695757 2097152 68354688 436242050
            -1862106366 9019403 -570416285</internalNodes>
          <leafValues>
            -9.6739131212234497e-01 5.0000000000000000e-01</leafValues></_>
        <_>
          <internalNodes>
            0 -1 39 -800968225 1543504930 4219265 1086325251 805437633
            -2130640896 -2130566645 -933191157</internalNodes>
          <leafValues>
            -9.4732004404067993e-01 5.7325500249862671e-01</leafValues></_></weakClassifiers></_>
    <!-- stage 10 -->
    <_>
      <maxWeakCount>2</maxWeakCount>
      <stageThreshold>-2.0802408456802368e-01</stageThreshold>
      <weakClassifiers>
        <_>
          <internalNodes>
            0 -1 40 -783035393 67748109 1342230549 487917825 1476920581
            -1308600319 -721371126 -341851991</internalNodes>
          <leafValues>
            -8.9047616720199585e-01 7.4444442987442017e-01</leafValues></_>
        <_>
          <internalNodes>
            0 -1 22 436555687 -2057355001 2150690 -2145926654 1342702336
            -83785593 32783 -32602102</internalNodes>
          <leafValues>
            -9.3166470527648926e-01 6.8245208263397217e-01</leafValues></_></weakClassifiers></_>
    <!-- stage 11 -->
    <_>
      <maxWeakCount>3</maxWeakCount>
      <stageThreshold>-9.7557651996612549e-01</stageThreshold>
      <weakClassifiers>
        <_>
          <internalNodes>
            0 -1 33 1401244151 291569670 -1610611712 -1794750460 5034249
            -2046689279 9175052 -271127158</internalNodes>
          <leafValues>
            -8.8571429252624512e-01 7.3333334922790527e-01</leafValues></_>
        <_>
          <internalNodes>
            0 -1 28 138533277 -1785658237 -2147483617 -1723768829
            -1740523109 -2121269247 -2147436376 -1990080504</internalNodes>
          <leafValues>
            -8.6911547183990479e-01 7.8917384147644043e-01</leafValues></_>
        <_>
          <internalNodes>
            0 -1 18 18338133 -771686304 1086391937 -1593638656 306188677
            -2134638587 -670202711 -531889637</internalNodes>
          <leafValues>
            -8.7903606891632080e-01 8.0083703994750977e-01</leafValues></_></weakClassifiers></_>
    <!-- stage 12 -->
    <_>
      <maxWeakCount>2</maxWeakCount>
      <stageThreshold>-1.6688793897628784e-01</stageThreshold>
      <weakClassifiers>
        <_>
          <internalNodes>
            0 -1 31 1359057167 1342542357 268521731 -939483136 545783808
            -1593311232 -528380862 -183856639</internalNodes>
          <leafValues>
            -9.3069308996200562e-01 6.9387757778167725e-01</leafValues></_>
        <_>
          <internalNodes>
            0 -1 43 -888040541 1364263043 541069313 1167393 -2113371580
            -1744297728 4263977 -1559689015</internalNodes>
          <leafValues>
            -8.6076551675796509e-01 7.6921296119689941e-01</leafValues></_></weakClassifiers></_>
    <!-- stage 13 -->
    <_>
      <maxWeakCount>2</maxWeakCount>
      <stageThreshold>-1.6438740491867065e-01</stageThreshold>
      <weakClassifiers>
        <_>
          <internalNodes>
            0 -1 15 587395551 -662530032 75518080 562103301 25166601
            -2147217278 -629044182 -354238325</internalNodes>
          <leafValues>
            -9.2156863212585449e-01 7.0833331346511841e-01</leafValues></_>
        <_>
          <internalNodes>
            0 -1 8 1392918655 -1862008704 8389645 202448896 -2136954707
            -2143254528 -796557312 -1587396589</internalNodes>
          <leafValues>
            -8.7272071838378906e-01 8.3015441894531250e-01</leafValues></_></weakClassifiers></_>
    <!-- stage 14 -->
    <_>
      <maxWeakCount>2</maxWeakCount>
      <stageThreshold>-1.6611380875110626e-01</stageThreshold>
      <weakClassifiers>
        <_>
          <internalNodes>
            0 -1 12 1430773077 816972420 -2013003775 -2096791552
            134742216 -1878978540 -1929346933 -161957504</internalNodes>
          <leafValues>
            -9.1240876913070679e-01 7.1428573131561279e-01</leafValues></_>
        <_>
          <internalNodes>
            0 -1 29 -872299741 1363149187 80 -196082670 33562633
            1212153859 -939229045 -662314750</internalNodes>
          <leafValues>
            -8.8039952516555786e-01 7.9316759109497070e-01</leafValues></_></weakClassifiers></_>
    <!-- stage 15 -->
    <_>
      <maxWeakCount>2</maxWeakCount>
      <stageThreshold>-1.4709968864917755e-01</stageThreshold>
      <weakClassifiers>
        <_>
          <internalNodes>
            0 -1 7 -1050656561 1611661441 -2004811517 1367867469
            -1794865009 -1006632960 -534151013 -117274494</internalNodes>
          <leafValues>
            -8.5714286565780640e-01 7.9518073797225952e-01</leafValues></_>
        <_>
          <internalNodes>
            0 -1 17 26597599 810075251 1275462162 -654310648 -2021648227
            1162641428 134217881 866166795</internalNodes>
          <leafValues>
            -9.2081338167190552e-01 7.1004319190979004e-01</leafValues></_></weakClassifiers></_>
    <!-- stage 16 -->
    <_>
      <maxWeakCount>2</maxWeakCount>
      <stageThreshold>-9.5281943678855896e-02</stageThreshold>
      <weakClassifiers>
        <_>
          <internalNodes>
            0 -1 11 -870252545 -134218215 -851969 -147589125 277078144
            -2138962431 -1382 -46563331</internalNodes>
          <leafValues>
            -8.2781457901000977e-01 9.1836732625961304e-01</leafValues></_>
        <_>
          <internalNodes>
            0 -1 13 50434815 346050853 -1065335023 -1339752384
            1158742667 -766869071 -2092695419 -855461881</internalNodes>
          <leafValues>
            -9.5517259836196899e-01 7.3253262042999268e-01</leafValues></_></weakClassifiers></_>
    <!-- stage 17 -->
    <_>
      <maxWeakCount>3</maxWeakCount>
      <stageThreshold>-8.7552958726882935e-01</stageThreshold>
      <weakClassifiers>
        <_>
          <internalNodes>
            0 -1 37 -989652401 -1878982653 41041 402669569 -1198718973
            -1053423360 -1073737720 -116602182</internalNodes>
          <leafValues>
            -8.5067874193191528e-01 8.6075949668884277e-01</leafValues></_>
        <_>
          <internalNodes>
            0 -1 27 -1862182409 -751501295 16777229 1560625288
            -2130672870 -469237632 545327113 -1735911286</internalNodes>
          <leafValues>
            -8.1990218162536621e-01 8.7366580963134766e-01</leafValues></_>
        <_>
          <internalNodes>
            0 -1 30 1083278999 806420545 67129478 -1878392764
            -2116023808 -786431984 143654947 -108003319</internalNodes>
          <leafValues>
            -8.9364504814147949e-01 7.9505133628845215e-01</leafValues></_></weakClassifiers></_>
    <!-- stage 18 -->
    <_>
      <maxWeakCount>2</maxWeakCount>
      <stageThreshold>-9.2521168291568756e-02</stageThreshold>
      <weakClassifiers>
        <_>
          <internalNodes>
            0 -1 14 1162674455 268501081 69207555 -921632701 1107828811
            -1630535022 -897020502 -1600585451</internalNodes>
          <leafValues>
            -8.9521640539169312e-01 9.5031058788299561e-01</leafValues></_>
        <_>
          <internalNodes>
            0 -1 16 898767127 -2137898907 1179657 403203328 -1609564071
            -390070123 -1072658423 -1463482206</internalNodes>
          <leafValues>
            -9.4191545248031616e-01 8.0269521474838257e-01</leafValues></_></weakClassifiers></_>
    <!-- stage 19 -->
    <_>
      <maxWeakCount>3</maxWeakCount>
      <stageThreshold>-9.2746019363403320e-01</stageThreshold>
      <weakClassifiers>
        <_>
          <internalNodes>
            0 -1 6 -50147789 -130744293 -1 -32769 -2177 -67108875
            -1074689151 -83902473</internalNodes>
          <leafValues>
            -8.1578946113586426e-01 9.1666668653488159e-01</leafValues></_>
        <_>
          <internalNodes>
            0 -1 41 -716991725 360800420 -1837088253 1426079952
            -2013265903 -2113402876 -2138537976 -489385470</internalNodes>
          <leafValues>
            -8.5064291954040527e-01 8.2128524780273438e-01</leafValues></_>
        <_>
          <internalNodes>
            0 -1 32 -2129447915 26214402 98321 -704573436 1610793481
            -2004877304 -1560147924 -1180614647</internalNodes>
          <leafValues>
            -9.3295598030090332e-01 7.8071522712707520e-01</leafValues></_></weakClassifiers></_></stages>
  <features>
    <_>
      <rect>
        0 3 8 12</rect></_>
    <_>
      <rect>
        0 5 8 10</rect></_>
    <_>
      <rect>
        0 5 10 11</rect></_>
    <_>
      <rect>
        0 12 6 8</rect></_>
    <_>
      <rect>
        0 14 7 6</rect></_>
    <_>
      <rect>
        0 18 12 6</rect></_>
    <_>
      <rect>
        0 21 9 5</rect></_>
    <_>
      <rect>
        0 24 4 4</rect></_>
    <_>
      <rect>
        1 26 6 4</rect></_>
    <_>
      <rect>
        3 6 6 10</rect></_>
    <_>
      <rect>
        3 13 7 8</rect></_>
    <_>
      <rect>
        3 25 6 3</rect></_>
    <_>
      <rect>
        4 17 12 6</rect></_>
    <_>
      <rect>
        5 10 5 8</rect></_>
    <_>
      <rect>
        7 0 7 4</rect></_>
    <_>
      <rect>
        7 15 5 4</rect></_>
    <_>
      <rect>
        7 18 8 5</rect></_>
    <_>
      <rect>
        7 19 11 5</rect></_>
    <_>
      <rect>
        8 14 4 4</rect></_>
    <_>
      <rect>
        8 18 10 6</rect></_>
    <_>
      <rect>
        9 10 6 8</rect></_>
    <_>
      <rect>
        10 10 10 10</rect></_>
    <_>
      <rect>
        11 9 7 9</rect></_>
    <_>
      <rect>
        12 24 7 4</rect></_>
    <_>
      <rect>
        13 0 3 9</rect></_>
    <_>
      <rect>
        13 10 4 6</rect></_>
    <_>
      <rect>
        14 0 5 4</rect></_>
    <_>
      <rect>
        15 36 2 1</rect></_>
    <_>
      <rect>
        16 30 4 2</rect></_>
    <_>
      <rect>
        17 7 3 3</rect></_>
    <_>
      <rect>
        19 15 6 3</rect></_>
    <_>
      <rect>
        20 7 3 3</rect></_>
    <_>
      <rect>
        20 37 2 1</rect></_>
    <_>
      <rect>
        21 8 4 7</rect></_>
    <_>
      <rect>
        21 10 5 7</rect></_>
    <_>
      <rect>
        21 10 6 10</rect></_>
    <_>
      <rect>
        21 37 1 1</rect></_>
    <_>
      <rect>
        22 9 2 4</rect></_>
    <_>
      <rect>
        22 14 6 7</rect></_>
    <_>
      <rect>
        22 16 4 6</rect></_>
    <_>
      <rect>
        22 19 6 7</rect></_>
    <_>
      <rect>
        23 16 4 5</rect></_>
    <_>
      <rect>
        24 3 4 11</rect></_>
    <_>
      <rect>
        24 12 5 8</rect></_>
    <_>
      <rect>
        24 31 4 2</rect></_>
    <_>
      <rect>
        26 25 3 5</rect></_></features></cascade>
</opencv_storage>
