<?xml version="1.0"?>
<opencv_storage>
<cascade>
  <stageType>BOOST</stageType>
  <featureType>LBP</featureType>
  <height>40</height>
  <width>40</width>
  <stageParams>
    <boostType>GAB</boostType>
    <minHitRate>9.9500000476837158e-01</minHitRate>
    <maxFalseAlarm>5.0000000000000000e-01</maxFalseAlarm>
    <weightTrimRate>9.4999999999999996e-01</weightTrimRate>
    <maxDepth>1</maxDepth>
    <maxWeakCount>100</maxWeakCount></stageParams>
  <featureParams>
    <maxCatCount>256</maxCatCount></featureParams>
  <stageNum>20</stageNum>
  <stages>
    <!-- stage 0 -->
    <_>
      <maxWeakCount>2</maxWeakCount>
      <stageThreshold>-1.2054488807916641e-01</stageThreshold>
      <weakClassifiers>
        <_>
          <internalNodes>
            0 -1 3 957085151 17125701 -1073737725 -1793867581 171
            385941634 116939 -275785585</internalNodes>
          <leafValues>
            -9.5862066745758057e-01 8.3157896995544434e-01</leafValues></_>
        <_>
          <internalNodes>
            0 -1 13 1091556063 1392574979 17235971 1359052817 1610813595
            269191296 721055 1609269579</internalNodes>
          <leafValues>
            -9.3882280588150024e-01 8.3807581663131714e-01</leafValues></_></weakClassifiers></_>
    <!-- stage 1 -->
    <_>
      <maxWeakCount>2</maxWeakCount>
      <stageThreshold>-2.4646943807601929e-01</stageThreshold>
      <weakClassifiers>
        <_>
          <internalNodes>
            0 -1 1 -607657505 1898025122 -1073725440 -1056340735
            549720202 142639232 1098907651 -74478973</internalNodes>
          <leafValues>
            -9.5620435476303101e-01 6.8932038545608521e-01</leafValues></_>
        <_>
          <internalNodes>
            0 -1 29 -204769313 689111105 16793819 159760449 -1073577597
            -1073741822 -2147428198 1269811851</internalNodes>
          <leafValues>
            -9.3578982353210449e-01 7.2753632068634033e-01</leafValues></_></weakClassifiers></_>
    <!-- stage 2 -->
    <_>
      <maxWeakCount>2</maxWeakCount>
      <stageThreshold>-1.8331976234912872e-01</stageThreshold>
      <weakClassifiers>
        <_>
          <internalNodes>
            0 -1 0 -685899817 -670252793 -1035972543 -1690054011
            1241776773 -230505680 -511114237 -473705688</internalNodes>
          <leafValues>
            -9.3706291913986206e-01 7.6288658380508423e-01</leafValues></_>
        <_>
          <internalNodes>
            0 -1 38 -241173025 135303 -1593818999 17960963 -1610561152
            -1073741824 1143189640 -606091458</internalNodes>
          <leafValues>
            -9.1345423460006714e-01 7.5374317169189453e-01</leafValues></_></weakClassifiers></_>
    <!-- stage 3 -->
    <_>
      <maxWeakCount>2</maxWeakCount>
      <stageThreshold>-1.1207427829504013e-01</stageThreshold>
      <weakClassifiers>
        <_>
          <internalNodes>
            0 -1 18 -801009518 -1115090944 -2097150711 -218034037
            -2147446595 -930971512 -2012569415 -504840037</internalNodes>
          <leafValues>
            -8.4918034076690674e-01 7.9428571462631226e-01</leafValues></_>
        <_>
          <internalNodes>
            0 -1 11 39303447 -784269163 -536835311 -1023139765
            -1870561030 -629145472 -2012970869 -92022645</internalNodes>
          <leafValues>
            -9.0635997056961060e-01 7.9715430736541748e-01</leafValues></_></weakClassifiers></_>
    <!-- stage 4 -->
    <_>
      <maxWeakCount>2</maxWeakCount>
      <stageThreshold>-1.9979795813560486e-01</stageThreshold>
      <weakClassifiers>
        <_>
          <internalNodes>
            0 -1 42 -1864114605 -2079034944 151294021 -1811655933
            -2013101394 -331182838 -1862254577 -1595933877</internalNodes>
          <leafValues>
            -9.2253524065017700e-01 7.2448980808258057e-01</leafValues></_>
        <_>
          <internalNodes>
            0 -1 7 1506912959 -12349167 1611202844 -161254073 675973623
            -880174079 1233258659 -24387241</internalNodes>
          <leafValues>
            -9.2428773641586304e-01 7.2628718614578247e-01</leafValues></_></weakClassifiers></_>
    <!-- stage 5 -->
    <_>
      <maxWeakCount>2</maxWeakCount>
      <stageThreshold>-1.5805247426033020e-01</stageThreshold>
      <weakClassifiers>
        <_>
          <internalNodes>
            0 -1 2 456619831 996525056 -1115508591 -606781805 159391821
            887259873 -108900283 -18746033</internalNodes>
          <leafValues>
            -9.7872340679168701e-01 7.8787881135940552e-01</leafValues></_>
        <_>
          <internalNodes>
            0 -1 41 -2122713217 681297333 -1568291879 88688742
            -125771361 -531103487 -1701541861 -1157965365</internalNodes>
          <leafValues>
            -9.3824714422225952e-01 8.2067090272903442e-01</leafValues></_></weakClassifiers></_>
    <!-- stage 6 -->
    <_>
      <maxWeakCount>2</maxWeakCount>
      <stageThreshold>-2.0796976983547211e-01</stageThreshold>
      <weakClassifiers>
        <_>
          <internalNodes>
            0 -1 20 431690615 202806801 -1140321099 -140491390 91449341
            -1067409390 -1982272597 -3089792</internalNodes>
          <leafValues>
            -9.7826087474822998e-01 7.3529410362243652e-01</leafValues></_>
        <_>
          <internalNodes>
            0 -1 37 -1526222337 -1503035373 873011167 -880755670
            -1833585477 -1910972008 -1610566423 -1226765511</internalNodes>
          <leafValues>
            -9.4315534830093384e-01 7.7029109001159668e-01</leafValues></_></weakClassifiers></_>
    <!-- stage 7 -->
    <_>
      <maxWeakCount>2</maxWeakCount>
      <stageThreshold>-1.1398599296808243e-01</stageThreshold>
      <weakClassifiers>
        <_>
          <internalNodes>
            0 -1 35 -764938825 286557071 -2013230840 453124307
            -1035893541 -939300732 -1055880503 -373296437</internalNodes>
          <leafValues>
            -9.0972220897674561e-01 7.3958331346511841e-01</leafValues></_>
        <_>
          <internalNodes>
            0 -1 23 -1987742221 -650837229 135290945 -479418875
            550056169 -95394924 -322027058 -286545880</internalNodes>
          <leafValues>
            -8.4351837635040283e-01 7.9573625326156616e-01</leafValues></_></weakClassifiers></_>
    <!-- stage 8 -->
    <_>
      <maxWeakCount>3</maxWeakCount>
      <stageThreshold>-1.0348463058471680e+00</stageThreshold>
      <weakClassifiers>
        <_>
          <internalNodes>
            0 -1 39 -782765669 1343602705 1073856512 286310400
            -1879031751 -1073184734 -1744797688 -712715638</internalNodes>
          <leafValues>
            -8.4053158760070801e-01 7.4301677942276001e-01</leafValues></_>
        <_>
          <internalNodes>
            0 -1 21 -648853581 -784035747 65817 -2130607853 -787971965
            -1207433208 33588376 -1744797696</internalNodes>
          <leafValues>
            -8.5128521919250488e-01 7.7804386615753174e-01</leafValues></_>
        <_>
          <internalNodes>
            0 -1 4 -1857563432 -648822716 -1862270947 1342373889
            -2147448424 -1878998912 536907976 404425090</internalNodes>
          <leafValues>
            -9.6793985366821289e-01 6.5697050094604492e-01</leafValues></_></weakClassifiers></_>
    <!-- stage 9 -->
    <_>
      <maxWeakCount>2</maxWeakCount>
      <stageThreshold>-2.3307678103446960e-01</stageThreshold>
      <weakClassifiers>
        <_>
          <internalNodes>
            0 -1 31 -179055145 812521085 1510523207 10418343 -1543274149
            -758832115 -859555687 -118502918</internalNodes>
          <leafValues>
            -9.5588237047195435e-01 6.7307692766189575e-01</leafValues></_>
        <_>
          <internalNodes>
            0 -1 17 -716206509 -989654951 -2027323253 -205324235
            -267841835 -1204911973 -829896117 -264532479</internalNodes>
          <leafValues>
            -9.0615367889404297e-01 7.5511831045150757e-01</leafValues></_></weakClassifiers></_>
    <!-- stage 10 -->
    <_>
      <maxWeakCount>3</maxWeakCount>
      <stageThreshold>-1.0278021097183228e+00</stageThreshold>
      <weakClassifiers>
        <_>
          <internalNodes>
            0 -1 27 -704519589 -741761003 -1996422631 -216420032
            -527981672 9043978 -1694498805 -455409401</internalNodes>
          <leafValues>
            -8.6666667461395264e-01 6.5128207206726074e-01</leafValues></_>
        <_>
          <internalNodes>
            0 -1 5 -797416065 -1157168045 1107296327 -1122487776
            1275102125 -1324875736 1489535877 -343800543</internalNodes>
          <leafValues>
            -8.5212004184722900e-01 7.4985659122467041e-01</leafValues></_>
        <_>
          <internalNodes>
            0 -1 28 -1929362053 156303417 51380249 -242155502 134353005
            -1434443775 -1979416437 -1626189173</internalNodes>
          <leafValues>
            -9.3544632196426392e-01 6.9098460674285889e-01</leafValues></_></weakClassifiers></_>
    <!-- stage 11 -->
    <_>
      <maxWeakCount>2</maxWeakCount>
      <stageThreshold>-1.5980103611946106e-01</stageThreshold>
      <weakClassifiers>
        <_>
          <internalNodes>
            0 -1 12 1413608773 -2096557886 2059 -1852763893 -2130663275
            -494927573 -2130706293 -140251129</internalNodes>
          <leafValues>
            -8.1699347496032715e-01 7.4712646007537842e-01</leafValues></_>
        <_>
          <internalNodes>
            0 -1 8 2073239519 843104727 1075380226 -1852734077
            -2013224659 -1324660465 -2138868025 -1349992182</internalNodes>
          <leafValues>
            -9.0692746639251709e-01 6.8857759237289429e-01</leafValues></_></weakClassifiers></_>
    <!-- stage 12 -->
    <_>
      <maxWeakCount>3</maxWeakCount>
      <stageThreshold>-9.6762204170227051e-01</stageThreshold>
      <weakClassifiers>
        <_>
          <internalNodes>
            0 -1 36 1159001455 285573527 -518897388 -2008284830
            -1056894543 1124127232 -100278142 -292034238</internalNodes>
          <leafValues>
            -8.6619716882705688e-01 6.4285713434219360e-01</leafValues></_>
        <_>
          <internalNodes>
            0 -1 24 -788016553 -105578495 134234352 -750975840
            1619038635 -362657372 -2130141077 -1541174777</internalNodes>
          <leafValues>
            -8.1525534391403198e-01 7.6391321420669556e-01</leafValues></_>
        <_>
          <internalNodes>
            0 -1 40 -974784687 1392596237 -1475866399 303595601
            -400504103 -2146402304 -1592950392 -905249871</internalNodes>
          <leafValues>
            -9.0687817335128784e-01 7.1383053064346313e-01</leafValues></_></weakClassifiers></_>
    <!-- stage 13 -->
    <_>
      <maxWeakCount>2</maxWeakCount>
      <stageThreshold>-3.0269178748130798e-01</stageThreshold>
      <weakClassifiers>
        <_>
          <internalNodes>
            0 -1 14 50702135 -670137476 -1006578618 -462618036
            -1676362593 -2012478560 -796057364 -338739165</internalNodes>
          <leafValues>
            -9.6837943792343140e-01 5.5066078901290894e-01</leafValues></_>
        <_>
          <internalNodes>
            0 -1 15 -2012996901 -788332076 1225050462 -805236586
            -1827556709 -1082130166 1217441793 -32436192</internalNodes>
          <leafValues>
            -8.5335260629653931e-01 7.3012548685073853e-01</leafValues></_></weakClassifiers></_>
    <!-- stage 14 -->
    <_>
      <maxWeakCount>2</maxWeakCount>
      <stageThreshold>-2.4974034726619720e-01</stageThreshold>
      <weakClassifiers>
        <_>
          <internalNodes>
            0 -1 34 -887672065 47706279 343955976 -1409032183
            -2013141885 1228965888 -1291280376 -315888479</internalNodes>
          <leafValues>
            -8.9130437374114990e-01 6.1764705181121826e-01</leafValues></_>
        <_>
          <internalNodes>
            0 -1 22 285995359 -753860521 1073761615 -782335862 30431707
            974039200 -1451160956 -134106496</internalNodes>
          <leafValues>
            -8.6738741397857666e-01 7.0302605628967285e-01</leafValues></_></weakClassifiers></_>
    <!-- stage 15 -->
    <_>
      <maxWeakCount>2</maxWeakCount>
      <stageThreshold>-3.4939306974411011e-01</stageThreshold>
      <weakClassifiers>
        <_>
          <internalNodes>
            0 -1 9 -796262657 1462064256 538076433 -2062761598
            1485464235 1147666570 -1073610103 -249594876</internalNodes>
          <leafValues>
            -9.1791045665740967e-01 5.9433960914611816e-01</leafValues></_>
        <_>
          <internalNodes>
            0 -1 32 -2145925123 -1241305035 25510045 -611778480
            -1824472946 -901708800 185827466 495518080</internalNodes>
          <leafValues>
            -9.4373267889022827e-01 6.1204862594604492e-01</leafValues></_></weakClassifiers></_>
    <!-- stage 16 -->
    <_>
      <maxWeakCount>2</maxWeakCount>
      <stageThreshold>-2.8654772043228149e-01</stageThreshold>
      <weakClassifiers>
        <_>
          <internalNodes>
            0 -1 19 354588597 -263879133 188873 -798908332 622866549
            -461360992 -1182228344 -118314518</internalNodes>
          <leafValues>
            -9.1143912076950073e-01 6.0765552520751953e-01</leafValues></_>
        <_>
          <internalNodes>
            0 -1 30 -1857588737 -801111881 805376001 290017539
            -1879027061 -1056440318 939557545 -1182187347</internalNodes>
          <leafValues>
            -8.9420324563980103e-01 6.5637338161468506e-01</leafValues></_></weakClassifiers></_>
    <!-- stage 17 -->
    <_>
      <maxWeakCount>2</maxWeakCount>
      <stageThreshold>-1.6568186879158020e-01</stageThreshold>
      <weakClassifiers>
        <_>
          <internalNodes>
            0 -1 25 -1685598025 -1684863983 1073877248 -1291775959
            -1719486331 -1693876078 -1975482358 -1402551488</internalNodes>
          <leafValues>
            -7.9153096675872803e-01 7.1098268032073975e-01</leafValues></_>
        <_>
          <internalNodes>
            0 -1 26 -2008870865 2099054601 289702037 4212745 142639371
            -1069448856 -2003787228 -773591133</internalNodes>
          <leafValues>
            -8.7666451930999756e-01 6.7346233129501343e-01</leafValues></_></weakClassifiers></_>
    <!-- stage 18 -->
    <_>
      <maxWeakCount>2</maxWeakCount>
      <stageThreshold>-2.9524815082550049e-01</stageThreshold>
      <weakClassifiers>
        <_>
          <internalNodes>
            0 -1 33 -748213545 -1860922871 -2147186556 -1341685751
            -1073737659 -939360256 -503035901 -424029881</internalNodes>
          <leafValues>
            -8.4083044528961182e-01 6.4397907257080078e-01</leafValues></_>
        <_>
          <internalNodes>
            0 -1 16 286823543 587439815 166117 -714340083 1237385603
            -534675424 -1937706488 -380755957</internalNodes>
          <leafValues>
            -9.3922722339630127e-01 6.4122426509857178e-01</leafValues></_></weakClassifiers></_>
    <!-- stage 19 -->
    <_>
      <maxWeakCount>2</maxWeakCount>
      <stageThreshold>-3.6240959167480469e-01</stageThreshold>
      <weakClassifiers>
        <_>
          <internalNodes>
            0 -1 6 1315419349 -2138537815 -2113388525 -2127855582
            772514689 1613037570 -1694357435 -335848313</internalNodes>
          <leafValues>
            -9.3574297428131104e-01 4.8917749524116516e-01</leafValues></_>
        <_>
          <internalNodes>
            0 -1 10 -804200229 1096384521 -1038893037 -1585111040
            -1064203887 -335018942 8390665 -73850751</internalNodes>
          <leafValues>
            -8.5158711671829224e-01 6.6651982069015503e-01</leafValues></_></weakClassifiers></_></stages>
  <features>
    <_>
      <rect>
        0 4 7 11</rect></_>
    <_>
      <rect>
        0 4 8 12</rect></_>
    <_>
      <rect>
        0 6 10 10</rect></_>
    <_>
      <rect>
        0 12 13 7</rect></_>
    <_>
      <rect>
        0 27 12 4</rect></_>
    <_>
      <rect>
        0 28 7 3</rect></_>
    <_>
      <rect>
        1 7 6 11</rect></_>
    <_>
      <rect>
        1 8 7 9</rect></_>
    <_>
      <rect>
        1 10 10 10</rect></_>
    <_>
      <rect>
        2 3 6 11</rect></_>
    <_>
      <rect>
        2 23 7 4</rect></_>
    <_>
      <rect>
        3 14 7 7</rect></_>
    <_>
      <rect>
        4 0 6 5</rect></_>
    <_>
      <rect>
        4 7 5 8</rect></_>
    <_>
      <rect>
        4 12 6 9</rect></_>
    <_>
      <rect>
        4 29 8 2</rect></_>
    <_>
      <rect>
        5 16 8 4</rect></_>
    <_>
      <rect>
        6 0 7 5</rect></_>
    <_>
      <rect>
        6 23 10 4</rect></_>
    <_>
      <rect>
        7 15 5 4</rect></_>
    <_>
      <rect>
        7 15 8 6</rect></_>
    <_>
      <rect>
        8 0 7 2</rect></_>
    <_>
      <rect>
        8 0 8 2</rect></_>
    <_>
      <rect>
        9 13 5 6</rect></_>
    <_>
      <rect>
        11 0 5 4</rect></_>
    <_>
      <rect>
        11 1 7 2</rect></_>
    <_>
      <rect>
        12 7 5 3</rect></_>
    <_>
      <rect>
        13 1 5 4</rect></_>
    <_>
      <rect>
        13 37 3 1</rect></_>
    <_>
      <rect>
        16 16 8 8</rect></_>
    <_>
      <rect>
        18 34 2 2</rect></_>
    <_>
      <rect>
        19 15 7 5</rect></_>
    <_>
      <rect>
        19 32 3 2</rect></_>
    <_>
      <rect>
        21 8 2 5</rect></_>
    <_>
      <rect>
        21 8 4 10</rect></_>
    <_>
      <rect>
        21 10 5 7</rect></_>
    <_>
      <rect>
        21 11 4 5</rect></_>
    <_>
      <rect>
        23 30 4 3</rect></_>
    <_>
      <rect>
        24 5 4 10</rect></_>
    <_>
      <rect>
        25 15 4 5</rect></_>
    <_>
      <rect>
        25 16 5 5</rect></_>
    <_>
      <rect>
        31 22 3 6</rect></_>
    <_>
      <rect>
        34 23 2 5</rect></_></features></cascade>
</opencv_storage>
