<?xml version="1.0"?>
<opencv_storage>
<cascade>
  <stageType>BOOST</stageType>
  <featureType>LBP</featureType>
  <height>40</height>
  <width>40</width>
  <stageParams>
    <boostType>GAB</boostType>
    <minHitRate>9.9500000476837158e-01</minHitRate>
    <maxFalseAlarm>5.0000000000000000e-01</maxFalseAlarm>
    <weightTrimRate>9.4999999999999996e-01</weightTrimRate>
    <maxDepth>1</maxDepth>
    <maxWeakCount>100</maxWeakCount></stageParams>
  <featureParams>
    <maxCatCount>256</maxCatCount></featureParams>
  <stageNum>20</stageNum>
  <stages>
    <!-- stage 0 -->
    <_>
      <maxWeakCount>2</maxWeakCount>
      <stageThreshold>-1.3602802157402039e-01</stageThreshold>
      <weakClassifiers>
        <_>
          <internalNodes>
            0 -1 12 -242491159 998441088 81921 453181440 -1979015013
            524288 1107329419 1376436875</internalNodes>
          <leafValues>
            -9.6178346872329712e-01 8.7096774578094482e-01</leafValues></_>
        <_>
          <internalNodes>
            0 -1 34 -645662500 1426087936 -2147385343 1359069187
            -939343735 -2147385344 -1870561109 -847003509</internalNodes>
          <leafValues>
            -9.9395167827606201e-01 8.2575541734695435e-01</leafValues></_></weakClassifiers></_>
    <!-- stage 1 -->
    <_>
      <maxWeakCount>2</maxWeakCount>
      <stageThreshold>-2.5083646178245544e-01</stageThreshold>
      <weakClassifiers>
        <_>
          <internalNodes>
            0 -1 28 -754716513 -787447789 285233177 1359020289
            -2013036408 0 -1040088949 -100348720</internalNodes>
          <leafValues>
            -9.9312716722488403e-01 7.1291863918304443e-01</leafValues></_>
        <_>
          <internalNodes>
            0 -1 27 1510474690 -250576877 16657 1359053059 -1869905778
            -1869611008 671204235 -33844853</internalNodes>
          <leafValues>
            -9.6375513076782227e-01 8.0860316753387451e-01</leafValues></_></weakClassifiers></_>
    <!-- stage 2 -->
    <_>
      <maxWeakCount>2</maxWeakCount>
      <stageThreshold>-1.0106913745403290e-01</stageThreshold>
      <weakClassifiers>
        <_>
          <internalNodes>
            0 -1 9 -3410465 -209596155 -1069481969 -1826453375
            -784293237 -1442611197 1234010271 -733961589</internalNodes>
          <leafValues>
            -9.2429023981094360e-01 8.3606559038162231e-01</leafValues></_>
        <_>
          <internalNodes>
            0 -1 7 -251268673 -787361375 69783 -208595838 -1710784357
            -2004877184 -2012893986 -1069223386</internalNodes>
          <leafValues>
            -9.3713468313217163e-01 8.3684986829757690e-01</leafValues></_></weakClassifiers></_>
    <!-- stage 3 -->
    <_>
      <maxWeakCount>2</maxWeakCount>
      <stageThreshold>-2.3452220857143402e-01</stageThreshold>
      <weakClassifiers>
        <_>
          <internalNodes>
            0 -1 23 -268110628 1435877656 1216401418 -641630199
            -2096979767 -2130575336 -2147448437 -611335281</internalNodes>
          <leafValues>
            -9.5973151922225952e-01 7.2277230024337769e-01</leafValues></_>
        <_>
          <internalNodes>
            0 -1 1 1796341715 -787414759 -788474813 -753810175 310509745
            -654311422 -2112880485 -190098213</internalNodes>
          <leafValues>
            -9.5729446411132812e-01 7.5048327445983887e-01</leafValues></_></weakClassifiers></_>
    <!-- stage 4 -->
    <_>
      <maxWeakCount>2</maxWeakCount>
      <stageThreshold>-2.2154183685779572e-01</stageThreshold>
      <weakClassifiers>
        <_>
          <internalNodes>
            0 -1 3 2132270591 -1049157027 -652127265 -431599614
            1225628585 -1722050406 -2071689016 -186591054</internalNodes>
          <leafValues>
            -9.7315436601638794e-01 7.4257427453994751e-01</leafValues></_>
        <_>
          <internalNodes>
            0 -1 0 -677917193 809578805 -1056826561 -782176204
            -1587951477 -340683743 -1306202711 -112856560</internalNodes>
          <leafValues>
            -9.6411609649658203e-01 8.1280231475830078e-01</leafValues></_></weakClassifiers></_>
    <!-- stage 5 -->
    <_>
      <maxWeakCount>2</maxWeakCount>
      <stageThreshold>-1.4883425831794739e-01</stageThreshold>
      <weakClassifiers>
        <_>
          <internalNodes>
            0 -1 2 -887111201 -1651644075 1083310279 -286920045
            -43253497 -1328971263 -1296120284 -136975389</internalNodes>
          <leafValues>
            -9.1222572326660156e-01 8.3425414562225342e-01</leafValues></_>
        <_>
          <internalNodes>
            0 -1 38 -637544452 -1717987899 -1476161013 -150525544
            -1593122075 -754966498 1267391065 -140248945</internalNodes>
          <leafValues>
            -9.7008776664733887e-01 7.6339143514633179e-01</leafValues></_></weakClassifiers></_>
    <!-- stage 6 -->
    <_>
      <maxWeakCount>2</maxWeakCount>
      <stageThreshold>-2.3489002883434296e-01</stageThreshold>
      <weakClassifiers>
        <_>
          <internalNodes>
            0 -1 37 1440478719 -899984353 1359311377 -749606581
            -1847993459 -355852767 -1303566581 -50796884</internalNodes>
          <leafValues>
            -9.8006641864776611e-01 7.7889448404312134e-01</leafValues></_>
        <_>
          <internalNodes>
            0 -1 21 -1856939009 -65269679 1561892185 -300380028
            -1366252311 -1996650323 -1425768421 -995925616</internalNodes>
          <leafValues>
            -9.7533565759658813e-01 7.4517643451690674e-01</leafValues></_></weakClassifiers></_>
    <!-- stage 7 -->
    <_>
      <maxWeakCount>2</maxWeakCount>
      <stageThreshold>-1.5140414237976074e-01</stageThreshold>
      <weakClassifiers>
        <_>
          <internalNodes>
            0 -1 29 -645541517 -650043195 1090523393 16984083 -263462693
            -432012287 -1070210915 -548419365</internalNodes>
          <leafValues>
            -8.6250001192092896e-01 7.5555557012557983e-01</leafValues></_>
        <_>
          <internalNodes>
            0 -1 17 50536911 -721074099 218472089 488980629 419742102
            2085655697 -502626678 -9582453</internalNodes>
          <leafValues>
            -9.0695971250534058e-01 7.2964948415756226e-01</leafValues></_></weakClassifiers></_>
    <!-- stage 8 -->
    <_>
      <maxWeakCount>2</maxWeakCount>
      <stageThreshold>-2.1516443789005280e-01</stageThreshold>
      <weakClassifiers>
        <_>
          <internalNodes>
            0 -1 40 -384835075 -2138496319 -1073692631 701202699
            -1971253085 537878531 -1933475327 -231742581</internalNodes>
          <leafValues>
            -8.9333331584930420e-01 6.3999998569488525e-01</leafValues></_>
        <_>
          <internalNodes>
            0 -1 18 -670592069 -1865842663 -939499243 -777845885
            -805273414 -894959552 -754861362 -886582997</internalNodes>
          <leafValues>
            -8.5516440868377686e-01 7.5536787509918213e-01</leafValues></_></weakClassifiers></_>
    <!-- stage 9 -->
    <_>
      <maxWeakCount>2</maxWeakCount>
      <stageThreshold>-2.5642222166061401e-01</stageThreshold>
      <weakClassifiers>
        <_>
          <internalNodes>
            0 -1 26 1883362301 25461011 537987069 -678424576 -2147057473
            -1350532862 -1807712053 -24593704</internalNodes>
          <leafValues>
            -9.6539789438247681e-01 6.5876775979995728e-01</leafValues></_>
        <_>
          <internalNodes>
            0 -1 31 1240727262 1544634900 -977152348 -780073464 1085665
            -2113929145 -1639345647 -134223549</internalNodes>
          <leafValues>
            -9.1518998146057129e-01 7.4459964036941528e-01</leafValues></_></weakClassifiers></_>
    <!-- stage 10 -->
    <_>
      <maxWeakCount>2</maxWeakCount>
      <stageThreshold>-2.8013321757316589e-01</stageThreshold>
      <weakClassifiers>
        <_>
          <internalNodes>
            0 -1 24 -721298593 -785280997 -1879027429 465305920
            1210163403 -469598191 445172411 -922741040</internalNodes>
          <leafValues>
            -8.8996762037277222e-01 7.0680630207061768e-01</leafValues></_>
        <_>
          <internalNodes>
            0 -1 5 -1049496097 -1258220139 1640038668 -104757238
            1216873759 -1073739135 269616080 -187369083</internalNodes>
          <leafValues>
            -9.8693948984146118e-01 6.3890904188156128e-01</leafValues></_></weakClassifiers></_>
    <!-- stage 11 -->
    <_>
      <maxWeakCount>2</maxWeakCount>
      <stageThreshold>-2.7999696135520935e-01</stageThreshold>
      <weakClassifiers>
        <_>
          <internalNodes>
            0 -1 25 -779038762 -650073984 20572 825507984 -2013155125
            -1473772415 -939292502 -360676832</internalNodes>
          <leafValues>
            -9.4501715898513794e-01 6.4593303203582764e-01</leafValues></_>
        <_>
          <internalNodes>
            0 -1 13 1751059231 -805072890 -2147334137 -2138963965
            -1034935803 -1995440125 -247300071 -121327224</internalNodes>
          <leafValues>
            -9.2592996358871460e-01 7.1962016820907593e-01</leafValues></_></weakClassifiers></_>
    <!-- stage 12 -->
    <_>
      <maxWeakCount>2</maxWeakCount>
      <stageThreshold>-1.9407182931900024e-01</stageThreshold>
      <weakClassifiers>
        <_>
          <internalNodes>
            0 -1 16 -469639401 -1867313150 67121153 -788418440 485129
            -532413694 -1912602588 -845427743</internalNodes>
          <leafValues>
            -8.7538939714431763e-01 7.8770947456359863e-01</leafValues></_>
        <_>
          <internalNodes>
            0 -1 39 1394051356 -753859264 268550145 -1653620221
            -2126208293 -1602183032 -1468005720 -1853101128</internalNodes>
          <leafValues>
            -9.8178130388259888e-01 7.2856324911117554e-01</leafValues></_></weakClassifiers></_>
    <!-- stage 13 -->
    <_>
      <maxWeakCount>2</maxWeakCount>
      <stageThreshold>-2.3277707397937775e-01</stageThreshold>
      <weakClassifiers>
        <_>
          <internalNodes>
            0 -1 10 489688332 -217033727 16842887 -654302781 17399899
            -251649143 -1719064433 -1088763870</internalNodes>
          <leafValues>
            -9.3333333730697632e-01 6.9999998807907104e-01</leafValues></_>
        <_>
          <internalNodes>
            0 -1 30 -749348367 1342244128 134238224 99033163 -1610315262
            -1476098045 1073775640 -107019901</internalNodes>
          <leafValues>
            -9.3277710676193237e-01 7.1428722143173218e-01</leafValues></_></weakClassifiers></_>
    <!-- stage 14 -->
    <_>
      <maxWeakCount>2</maxWeakCount>
      <stageThreshold>-1.5010935068130493e-01</stageThreshold>
      <weakClassifiers>
        <_>
          <internalNodes>
            0 -1 35 155727647 -1807216493 16793789 461439042 -670957429
            -937787376 -1853824850 -1835366272</internalNodes>
          <leafValues>
            -9.0967744588851929e-01 7.4736839532852173e-01</leafValues></_>
        <_>
          <internalNodes>
            0 -1 36 1350693735 1610942539 -2147471353 -1073724672
            578816642 -2130575294 -2004445078 -1213263849</internalNodes>
          <leafValues>
            -8.9747780561447144e-01 7.9341077804565430e-01</leafValues></_></weakClassifiers></_>
    <!-- stage 15 -->
    <_>
      <maxWeakCount>2</maxWeakCount>
      <stageThreshold>-1.6861629486083984e-01</stageThreshold>
      <weakClassifiers>
        <_>
          <internalNodes>
            0 -1 14 -2130103401 275779871 805402697 1565284352 319856781
            1350697233 -1342142375 -91697021</internalNodes>
          <leafValues>
            -9.1167193651199341e-01 8.1420767307281494e-01</leafValues></_>
        <_>
          <internalNodes>
            0 -1 11 419816727 -1560263673 1392591003 -1001389949
            -2003631519 -2003827130 -1373062616 -464088058</internalNodes>
          <leafValues>
            -9.5801585912704468e-01 7.4305564165115356e-01</leafValues></_></weakClassifiers></_>
    <!-- stage 16 -->
    <_>
      <maxWeakCount>2</maxWeakCount>
      <stageThreshold>-7.7063381671905518e-02</stageThreshold>
      <weakClassifiers>
        <_>
          <internalNodes>
            0 -1 22 -1056860301 2031620865 136844697 -713031484 8487066
            574624001 1086849667 -71449807</internalNodes>
          <leafValues>
            -8.4848487377166748e-01 8.2352942228317261e-01</leafValues></_>
        <_>
          <internalNodes>
            0 -1 6 67308599 823332913 404902149 -650047472 155848859
            -1845491570 1073742543 -35443127</internalNodes>
          <leafValues>
            -9.0059280395507812e-01 7.9281085729598999e-01</leafValues></_></weakClassifiers></_>
    <!-- stage 17 -->
    <_>
      <maxWeakCount>2</maxWeakCount>
      <stageThreshold>-9.5899827778339386e-02</stageThreshold>
      <weakClassifiers>
        <_>
          <internalNodes>
            0 -1 19 1094944607 16794049 268521985 -818540207 2794555
            -1052147707 -536866751 -392396288</internalNodes>
          <leafValues>
            -8.6377710103988647e-01 7.8531074523925781e-01</leafValues></_>
        <_>
          <internalNodes>
            0 -1 4 1476494811 -2063519715 -1023393277 -260025979
            25723531 -2097151999 -1600126823 -477632496</internalNodes>
          <leafValues>
            -8.8121056556701660e-01 8.4348016977310181e-01</leafValues></_></weakClassifiers></_>
    <!-- stage 18 -->
    <_>
      <maxWeakCount>3</maxWeakCount>
      <stageThreshold>-8.3125525712966919e-01</stageThreshold>
      <weakClassifiers>
        <_>
          <internalNodes>
            0 -1 32 -1068494369 -17005357 -11 -1073741825 -1 -1
            -553656167 -50491393</internalNodes>
          <leafValues>
            -8.2840234041213989e-01 8.6419755220413208e-01</leafValues></_>
        <_>
          <internalNodes>
            0 -1 20 -1068824835 -1459527421 272696014 -1646750975
            1359085657 1076396160 1613279265 -360095733</internalNodes>
          <leafValues>
            -8.3063757419586182e-01 8.2192540168762207e-01</leafValues></_>
        <_>
          <internalNodes>
            0 -1 8 -570392225 -1424486388 1208013457 -651132800
            -2122317395 -1608470526 25985929 -81722742</internalNodes>
          <leafValues>
            -9.0708750486373901e-01 8.2778471708297729e-01</leafValues></_></weakClassifiers></_>
    <!-- stage 19 -->
    <_>
      <maxWeakCount>2</maxWeakCount>
      <stageThreshold>-3.1965109705924988e-01</stageThreshold>
      <weakClassifiers>
        <_>
          <internalNodes>
            0 -1 33 274055545 805372427 -2138832127 4294664 -2138930494
            -398303232 71335942 -1043865598</internalNodes>
          <leafValues>
            -9.2413794994354248e-01 6.0952383279800415e-01</leafValues></_>
        <_>
          <internalNodes>
            0 -1 15 1359057149 -251592702 1611661581 -653983719
            -1073643360 -1476263808 -2130667384 -532629500</internalNodes>
          <leafValues>
            -9.2917490005493164e-01 6.5997791290283203e-01</leafValues></_></weakClassifiers></_></stages>
  <features>
    <_>
      <rect>
        0 0 4 3</rect></_>
    <_>
      <rect>
        0 2 10 6</rect></_>
    <_>
      <rect>
        0 7 3 3</rect></_>
    <_>
      <rect>
        0 8 9 6</rect></_>
    <_>
      <rect>
        0 9 9 4</rect></_>
    <_>
      <rect>
        0 13 5 4</rect></_>
    <_>
      <rect>
        0 24 12 4</rect></_>
    <_>
      <rect>
        1 1 10 4</rect></_>
    <_>
      <rect>
        1 30 11 3</rect></_>
    <_>
      <rect>
        2 2 9 9</rect></_>
    <_>
      <rect>
        4 11 12 5</rect></_>
    <_>
      <rect>
        5 4 6 3</rect></_>
    <_>
      <rect>
        7 18 8 6</rect></_>
    <_>
      <rect>
        8 11 3 5</rect></_>
    <_>
      <rect>
        8 21 8 4</rect></_>
    <_>
      <rect>
        9 0 4 1</rect></_>
    <_>
      <rect>
        9 17 6 7</rect></_>
    <_>
      <rect>
        9 23 8 4</rect></_>
    <_>
      <rect>
        10 20 6 5</rect></_>
    <_>
      <rect>
        11 10 4 4</rect></_>
    <_>
      <rect>
        11 21 3 3</rect></_>
    <_>
      <rect>
        12 17 7 2</rect></_>
    <_>
      <rect>
        12 31 7 3</rect></_>
    <_>
      <rect>
        14 25 8 5</rect></_>
    <_>
      <rect>
        14 34 6 2</rect></_>
    <_>
      <rect>
        15 0 3 1</rect></_>
    <_>
      <rect>
        15 0 8 3</rect></_>
    <_>
      <rect>
        15 10 8 4</rect></_>
    <_>
      <rect>
        16 0 8 4</rect></_>
    <_>
      <rect>
        16 19 4 6</rect></_>
    <_>
      <rect>
        17 17 4 7</rect></_>
    <_>
      <rect>
        18 7 7 10</rect></_>
    <_>
      <rect>
        19 13 4 2</rect></_>
    <_>
      <rect>
        19 20 4 3</rect></_>
    <_>
      <rect>
        22 6 6 7</rect></_>
    <_>
      <rect>
        22 28 4 2</rect></_>
    <_>
      <rect>
        26 0 3 6</rect></_>
    <_>
      <rect>
        28 1 3 4</rect></_>
    <_>
      <rect>
        28 5 3 8</rect></_>
    <_>
      <rect>
        29 12 3 3</rect></_>
    <_>
      <rect>
        31 10 3 5</rect></_></features></cascade>
</opencv_storage>
